{"learner":{"attributes":{"best_iteration":"499","best_ntree_limit":"500","scikit_learn":"{\"use_label_encoder\": null, \"n_estimators\": 500, \"objective\": \"binary:logistic\", \"max_depth\": 4, \"max_leaves\": null, \"max_bin\": null, \"grow_policy\": null, \"learning_rate\": 0.02, \"verbosity\": null, \"booster\": null, \"tree_method\": null, \"gamma\": null, \"min_child_weight\": 1, \"max_delta_step\": null, \"subsample\": null, \"sampling_method\": null, \"colsample_bytree\": null, \"colsample_bylevel\": null, \"colsample_bynode\": null, \"reg_alpha\": null, \"reg_lambda\": null, \"scale_pos_weight\": null, \"base_score\": null, \"missing\": NaN, \"num_parallel_tree\": null, \"random_state\": 42, \"n_jobs\": null, \"monotone_constraints\": null, \"interaction_constraints\": null, \"importance_type\": null, \"gpu_id\": null, \"validate_parameters\": null, \"predictor\": null, \"enable_categorical\": false, \"feature_types\": null, \"max_cat_to_onehot\": null, \"max_cat_threshold\": null, \"eval_metric\": null, \"early_stopping_rounds\": null, \"callbacks\": null, \"kwargs\": {\"nthread\": -1}, \"classes_\": [0, 1], \"n_classes_\": 2, \"_estimator_type\": \"classifier\"}"},"feature_names":["mean radius","mean texture","mean perimeter","mean area","mean smoothness","mean compactness","mean concavity","mean concave points","mean symmetry","mean fractal dimension","radius error","texture error","perimeter error","area error","smoothness error","compactness error","concavity error","concave points error","symmetry error","fractal dimension error","worst radius","worst texture","worst perimeter","worst area","worst smoothness","worst compactness","worst concavity","worst concave points","worst symmetry","worst fractal dimension"],"feature_types":["float","float","float","float","float","float","float","float","float","float","float","float","float","float","float","float","float","float","float","float","float","float","float","float","float","float","float","float","float","float"],"gradient_booster":{"model":{"gbtree_model_param":{"num_parallel_tree":"1","num_trees":"500","size_leaf_vector":"0"},"tree_info":[0,0,0,0,0,0,0,0,0,0,0,0,0,0,0,0,0,0,0,0,0,0,0,0,0,0,0,0,0,0,0,0,0,0,0,0,0,0,0,0,0,0,0,0,0,0,0,0,0,0,0,0,0,0,0,0,0,0,0,0,0,0,0,0,0,0,0,0,0,0,0,0,0,0,0,0,0,0,0,0,0,0,0,0,0,0,0,0,0,0,0,0,0,0,0,0,0,0,0,0,0,0,0,0,0,0,0,0,0,0,0,0,0,0,0,0,0,0,0,0,0,0,0,0,0,0,0,0,0,0,0,0,0,0,0,0,0,0,0,0,0,0,0,0,0,0,0,0,0,0,0,0,0,0,0,0,0,0,0,0,0,0,0,0,0,0,0,0,0,0,0,0,0,0,0,0,0,0,0,0,0,0,0,0,0,0,0,0,0,0,0,0,0,0,0,0,0,0,0,0,0,0,0,0,0,0,0,0,0,0,0,0,0,0,0,0,0,0,0,0,0,0,0,0,0,0,0,0,0,0,0,0,0,0,0,0,0,0,0,0,0,0,0,0,0,0,0,0,0,0,0,0,0,0,0,0,0,0,0,0,0,0,0,0,0,0,0,0,0,0,0,0,0,0,0,0,0,0,0,0,0,0,0,0,0,0,0,0,0,0,0,0,0,0,0,0,0,0,0,0,0,0,0,0,0,0,0,0,0,0,0,0,0,0,0,0,0,0,0,0,0,0,0,0,0,0,0,0,0,0,0,0,0,0,0,0,0,0,0,0,0,0,0,0,0,0,0,0,0,0,0,0,0,0,0,0,0,0,0,0,0,0,0,0,0,0,0,0,0,0,0,0,0,0,0,0,0,0,0,0,0,0,0,0,0,0,0,0,0,0,0,0,0,0,0,0,0,0,0,0,0,0,0,0,0,0,0,0,0,0,0,0,0,0,0,0,0,0,0,0,0,0,0,0,0,0,0,0,0,0,0,0,0,0,0,0,0,0,0,0,0,0,0,0,0,0,0,0,0,0,0,0,0,0,0,0,0,0,0,0,0,0,0,0,0,0,0,0,0,0,0,0,0,0,0,0,0,0,0,0,0,0,0,0,0,0,0,0,0,0,0,0,0,0,0,0,0,0,0,0],"trees":[{"base_weights":[4.9751243E-1,1.7590362E0,-1.5159236E0,1.8803419E0,-1.0526316E-1,6.666667E-1,-1.7482518E0,1.9130435E0,-0E0,1.1111112E0,-8.5714287E-1,1.4285715E0,-1E0,1.1764706E-1,-1.9384615E0,1.9292035E0,5E-1,-1.2E0,-0E0,1.2727273E0,-1.2E0],"categories":[],"categories_nodes":[],"categories_segments":[],"categories_sizes":[],"default_left":[1,1,1,1,1,1,1,1,0,0,1,0,0,1,0,0,0,0,0,0,0],"id":0,"left_children":[1,3,5,7,9,11,13,15,-1,-1,17,-1,-1,19,-1,-1,-1,-1,-1,-1,-1],"loss_changes":[2.5793628E2,1.4275772E1,2.1068283E1,3.5971832E0,5.2965746E0,7.1428566E0,1.2916168E1,3.4840393E-1,0E0,0E0,1.0285714E0,0E0,0E0,7.995722E0,0E0,0E0,0E0,0E0,0E0,0E0,0E0],"parents":[2147483647,0,0,1,1,2,2,3,3,4,4,5,5,6,6,7,7,10,10,13,13],"right_children":[2,4,6,8,10,12,14,16,-1,-1,18,-1,-1,20,-1,-1,-1,-1,-1,-1,-1],"split_conditions":[5.128E-2,1.683E1,2.0404999E1,5.7210004E-1,1.619E1,9.1005E-2,7.1865E2,3.843E1,-0E0,2.2222223E-2,1.6055E1,2.8571429E-2,-2E-2,2.5925E1,-3.876923E-2,3.858407E-2,1E-2,-2.4E-2,-0E0,2.5454544E-2,-2.4E-2],"split_indices":[7,20,21,10,1,7,23,21,0,0,0,0,0,21,0,0,0,0,0,0,0],"split_type":[0,0,0,0,0,0,0,0,0,0,0,0,0,0,0,0,0,0,0,0,0],"sum_hessian":[9.95E1,6.125E1,3.825E1,5.75E1,3.75E0,3.5E0,3.475E1,5.65E1,1E0,1.25E0,2.5E0,2.5E0,1E0,3.25E0,3.15E1,5.55E1,1E0,1.5E0,1E0,1.75E0,1.5E0],"tree_param":{"num_deleted":"0","num_feature":"30","num_nodes":"21","size_leaf_vector":"0"}},{"base_weights":[4.8790812E-1,1.7251949E0,-1.4868314E0,1.844222E0,-1.0354036E-1,6.5532786E-1,-1.7149264E0,1.876307E0,-0E0,1.0988413E0,-8.4690994E-1,1.3650293E0,-6.609969E-1,1.1565005E-1,-1.9015822E0,-1.1857032E0,-0E0,1.2566592E0,-1.1857032E0],"categories":[],"categories_nodes":[],"categories_segments":[],"categories_sizes":[],"default_left":[1,1,1,1,1,1,1,0,0,0,1,0,0,1,0,0,0,0,0],"id":1,"left_children":[1,3,5,7,9,11,13,-1,-1,-1,15,-1,-1,17,-1,-1,-1,-1,-1],"loss_changes":[2.480356E2,1.3736267E1,2.0295677E1,3.4603271E0,5.1759048E0,5.105599E0,1.2431046E1,0E0,0E0,0E0,1.0041835E0,0E0,0E0,7.7999206E0,0E0,0E0,0E0,0E0,0E0],"parents":[2147483647,0,0,1,1,2,2,3,3,4,4,5,5,6,6,10,10,13,13],"right_children":[2,4,6,8,10,12,14,-1,-1,-1,16,-1,-1,18,-1,-1,-1,-1,-1],"split_conditions":[5.128E-2,1.683E1,2.0404999E1,5.7210004E-1,1.619E1,8.1955E-2,7.1865E2,3.7526138E-2,-0E0,2.1976825E-2,1.6055E1,2.7300587E-2,-1.3219938E-2,2.5925E1,-3.8031645E-2,-2.3714062E-2,-0E0,2.5133183E-2,-2.3714062E-2],"split_indices":[7,20,21,10,1,7,23,0,0,0,0,0,0,21,0,0,0,0,0],"split_type":[0,0,0,0,0,0,0,0,0,0,0,0,0,0,0,0,0,0,0],"sum_hessian":[9.946601E1,6.1228954E1,3.8237057E1,5.7479324E1,3.7496295E0,3.49939E0,3.4737667E1,5.6479324E1,1E0,1.2498457E0,2.499784E0,2.249541E0,1.249849E0,3.2495005E0,3.1488167E1,1.4997839E0,1E0,1.7497166E0,1.4997839E0],"tree_param":{"num_deleted":"0","num_feature":"30","num_nodes":"19","size_leaf_vector":"0"}},{"base_weights":[4.7875687E-1,1.6929494E0,-1.4590772E0,1.809859E0,-1.0185926E-1,6.455601E-1,-1.6833664E0,1.8413792E0,-0E0,1.0868549E0,-8.3690196E-1,1.3497148E0,-6.582478E-1,1.13711074E-1,-1.8667257E0,-1.171777E0,-0E0,1.241047E0,-1.171777E0],"categories":[],"categories_nodes":[],"categories_segments":[],"categories_sizes":[],"default_left":[1,1,1,1,1,1,1,0,0,0,1,0,0,1,0,0,0,0,0],"id":2,"left_children":[1,3,5,7,9,11,13,-1,-1,-1,15,-1,-1,17,-1,-1,-1,-1,-1],"loss_changes":[2.3862462E2,1.3229034E1,1.959076E1,3.3326416E0,5.058651E0,5.0179396E0,1.1976341E1,0E0,0E0,0E0,9.8066235E-1,0E0,0E0,7.6103735E0,0E0,0E0,0E0,0E0,0E0],"parents":[2147483647,0,0,1,1,2,2,3,3,4,4,5,5,6,6,10,10,13,13],"right_children":[2,4,6,8,10,12,14,-1,-1,-1,16,-1,-1,18,-1,-1,-1,-1,-1],"split_conditions":[5.128E-2,1.683E1,2.0404999E1,5.7210004E-1,1.619E1,1.7255001E1,7.1865E2,3.6827583E-2,-0E0,2.1737099E-2,1.6055E1,2.6994295E-2,-1.3164956E-2,2.5925E1,-3.7334513E-2,-2.343554E-2,-0E0,2.482094E-2,-2.343554E-2],"split_indices":[7,20,21,10,1,20,23,0,0,0,0,0,0,21,0,0,0,0,0],"split_type":[0,0,0,0,0,0,0,0,0,0,0,0,0,0,0,0,0,0,0],"sum_hessian":[9.9367256E1,6.1167675E1,3.8199577E1,5.741914E1,3.7485363E0,3.4979544E0,3.4701626E1,5.641914E1,1E0,1.2493898E0,2.4991467E0,2.2484252E0,1.2495291E0,3.2480276E0,3.1453596E1,1.4991466E0,1E0,1.7488809E0,1.4991466E0],"tree_param":{"num_deleted":"0","num_feature":"30","num_nodes":"19","size_leaf_vector":"0"}},{"base_weights":[4.7006708E-1,1.6623377E0,-1.432696E0,1.7772876E0,-1.002183E-1,6.3603234E-1,-1.6534364E0,1.8082931E0,-0E0,1.0751419E0,-8.2711124E-1,1.3348043E0,-6.555385E-1,1.1182751E-1,-1.8337334E0,-1.1582069E0,-0E0,1.2258706E0,-1.1582069E0],"categories":[],"categories_nodes":[],"categories_segments":[],"categories_sizes":[],"default_left":[1,1,1,1,1,1,1,0,0,0,1,0,0,1,0,0,0,0,0],"id":3,"left_children":[1,3,5,7,9,11,13,-1,-1,-1,15,-1,-1,17,-1,-1,-1,-1,-1],"loss_changes":[2.2971306E2,1.27535095E1,1.892456E1,3.213852E0,4.9446964E0,4.9325414E0,1.1549309E1,0E0,0E0,0E0,9.5796585E-1,0E0,0E0,7.4268227E0,0E0,0E0,0E0,0E0,0E0],"parents":[2147483647,0,0,1,1,2,2,3,3,4,4,5,5,6,6,10,10,13,13],"right_children":[2,4,6,8,10,12,14,-1,-1,-1,16,-1,-1,18,-1,-1,-1,-1,-1],"split_conditions":[5.128E-2,1.683E1,2.0404999E1,5.7210004E-1,1.619E1,1.5115E-1,7.1865E2,3.616586E-2,-0E0,2.1502838E-2,1.6055E1,2.6696086E-2,-1.311077E-2,2.5925E1,-3.6674667E-2,-2.3164138E-2,-0E0,2.4517411E-2,-2.3164138E-2],"split_indices":[7,20,21,10,1,27,23,0,0,0,0,0,0,21,0,0,0,0,0],"split_type":[0,0,0,0,0,0,0,0,0,0,0,0,0,0,0,0,0,0,0],"sum_hessian":[9.920743E1,6.1068367E1,3.813906E1,5.732162E1,3.7467456E0,3.495807E0,3.4643253E1,5.632162E1,1E0,1.2486423E0,2.4981034E0,2.2467732E0,1.2490337E0,3.2456179E0,3.1397636E1,1.4981034E0,1E0,1.7475145E0,1.4981034E0],"tree_param":{"num_deleted":"0","num_feature":"30","num_nodes":"19","size_leaf_vector":"0"}},{"base_weights":[4.618042E-1,1.633237E0,-1.407587E0,1.746371E0,-9.861618E-2,6.2673575E-1,-1.6250147E0,1.7769078E0,-0E0,8.788789E-1,-9.6162134E-1,1.3174009E0,-6.483218E-1,1.0999689E-1,-1.802464E0,5.857865E-1,1.7929031E0,1.2111115E0,-1.1449791E0],"categories":[],"categories_nodes":[],"categories_segments":[],"categories_sizes":[],"default_left":[1,1,1,1,1,1,1,1,0,0,0,0,0,1,0,0,0,0,0],"id":4,"left_children":[1,3,5,7,9,11,13,15,-1,-1,-1,-1,-1,17,-1,-1,-1,-1,-1],"loss_changes":[2.2126407E2,1.2306915E1,1.8293999E1,3.1031494E0,4.847347E0,4.8107815E0,1.11475525E1,3.930664E-2,0E0,0E0,0E0,0E0,0E0,7.2490253E0,0E0,0E0,0E0,0E0,0E0],"parents":[2147483647,0,0,1,1,2,2,3,3,4,4,5,5,6,6,7,7,13,13],"right_children":[2,4,6,8,10,12,14,16,-1,-1,-1,-1,-1,18,-1,-1,-1,-1,-1],"split_conditions":[5.128E-2,1.683E1,2.0404999E1,5.7210004E-1,1.868E1,1.5115E-1,7.1865E2,3.309E-3,-0E0,1.7577577E-2,-1.9232426E-2,2.6348017E-2,-1.2966435E-2,2.5925E1,-3.604928E-2,1.171573E-2,3.585806E-2,2.422223E-2,-2.2899581E-2],"split_indices":[7,20,21,10,1,27,23,14,0,0,0,0,0,21,0,0,0,0,0],"split_type":[0,0,0,0,0,0,0,0,0,0,0,0,0,0,0,0,0,0,0],"sum_hessian":[9.899018E1,6.093333E1,3.805685E1,5.718905E1,3.744283E0,3.492972E0,3.456388E1,5.618905E1,1E0,1.7470586E0,1.9972243E0,2.2441602E0,1.2488117E0,3.242308E0,3.1321571E1,1.2430782E0,5.4945972E1,1.7456387E0,1.4966693E0],"tree_param":{"num_deleted":"0","num_feature":"30","num_nodes":"19","size_leaf_vector":"0"}},{"base_weights":[4.5405018E-1,1.6056823E0,-1.3836648E0,1.7171655E0,-9.7038664E-2,4.5384398E-1,-1.6206752E0,1.7472782E0,-0E0,1.0544343E0,-8.093252E-1,1.3809916E0,-1.1193821E0,1.3036147E-1,-1.7456774E0,1.763233E0,5.698946E-1,-1.0740751E0,-1.8443145E-1],"categories":[],"categories_nodes":[],"categories_segments":[],"categories_sizes":[],"default_left":[1,1,1,1,1,1,1,1,0,0,1,0,0,0,0,0,0,0,0],"id":5,"left_children":[1,3,5,7,9,11,13,15,-1,-1,17,-1,-1,-1,-1,-1,-1,-1,-1],"loss_changes":[2.1326767E2,1.1891449E1,1.7700356E1,3.0003662E0,4.742736E0,9.176829E0,7.827713E0,6.6345215E-2,0E0,0E0,3.8020802E-1,0E0,0E0,0E0,0E0,0E0,0E0,0E0,0E0],"parents":[2147483647,0,0,1,1,2,2,3,3,4,4,5,5,6,6,7,7,10,10],"right_children":[2,4,6,8,10,12,14,16,-1,-1,18,-1,-1,-1,-1,-1,-1,-1,-1],"split_conditions":[5.128E-2,1.683E1,1.0325E2,5.7210004E-1,1.619E1,2.5925E1,2.0285E1,1.3435E-1,-0E0,2.1088686E-2,8.8415E-3,2.7619831E-2,-2.2387642E-2,2.6072294E-3,-3.4913547E-2,3.526466E-2,1.1397892E-2,-2.1481501E-2,-3.6886288E-3],"split_indices":[7,20,22,10,1,21,21,5,0,0,17,0,0,0,0,0,0,0,0],"split_type":[0,0,0,0,0,0,0,0,0,0,0,0,0,0,0,0,0,0,0],"sum_hessian":[9.872064E1,6.0766598E1,3.795405E1,5.7024513E1,3.7420833E0,4.2316637E0,3.3722385E1,5.6024513E1,1E0,1.2465599E0,2.4955235E0,2.73943E0,1.4922339E0,2.2440956E0,3.1478289E1,5.478454E1,1.2399737E0,1.247978E0,1.2475454E0],"tree_param":{"num_deleted":"0","num_feature":"30","num_nodes":"19","size_leaf_vector":"0"}},{"base_weights":[4.4655177E-1,1.5793703E0,-1.3608383E0,1.6893637E0,-9.601313E-2,6.090626E-1,-1.572379E0,1.7190906E0,-0E0,8.612498E-1,-9.4115436E-1,1.2929642E0,-6.470768E-1,1.1003162E-1,-1.7451729E0,1.7350343E0,5.539763E-1,1.1859213E0,-1.1173418E0],"categories":[],"categories_nodes":[],"categories_segments":[],"categories_sizes":[],"default_left":[1,1,1,1,1,1,1,1,0,0,0,0,0,1,0,0,0,0,0],"id":6,"left_children":[1,3,5,7,9,11,13,15,-1,-1,-1,-1,-1,17,-1,-1,-1,-1,-1],"loss_changes":[2.0567616E2,1.1508163E1,1.7141426E1,2.9041595E0,4.6448064E0,4.691227E0,1.0468536E1,9.45282E-2,0E0,0E0,0E0,0E0,0E0,6.9150453E0,0E0,0E0,0E0,0E0,0E0],"parents":[2147483647,0,0,1,1,2,2,3,3,4,4,5,5,6,6,7,7,13,13],"right_children":[2,4,6,8,10,12,14,16,-1,-1,-1,-1,-1,18,-1,-1,-1,-1,-1],"split_conditions":[5.128E-2,1.683E1,2.0404999E1,5.7210004E-1,1.868E1,1.7255001E1,7.1865E2,4.142E-1,-0E0,1.7224995E-2,-1.8823087E-2,2.5859283E-2,-1.2941536E-2,2.5925E1,-3.4903456E-2,3.4700688E-2,1.1079526E-2,2.3718426E-2,-2.2346834E-2],"split_indices":[7,20,21,10,1,20,23,25,0,0,0,0,0,21,0,0,0,0,0],"split_type":[0,0,0,0,0,0,0,0,0,0,0,0,0,0,0,0,0,0,0],"sum_hessian":[9.840532E1,6.0568768E1,3.783655E1,5.6829422E1,3.7393463E0,3.4868915E0,3.434966E1,5.5829422E1,1E0,1.7444296E0,1.9949167E0,2.238714E0,1.2481774E0,3.2331605E0,3.1116497E1,5.45932E1,1.2362213E0,1.7408985E0,1.492262E0],"tree_param":{"num_deleted":"0","num_feature":"30","num_nodes":"19","size_leaf_vector":"0"}},{"base_weights":[4.3949378E-1,1.5542893E0,-1.3390133E0,1.662866E0,-9.449461E-2,-1.8022658E-1,-1.7176138E0,1.6922423E0,-0E0,1.0345612E0,-7.927359E-1,1.2155961E0,-1.493922E0,1.7081022E0,5.4093987E-1,-1.0565526E0,-1.7604272E-1,1.4416771E0,2.1895324E-1],"categories":[],"categories_nodes":[],"categories_segments":[],"categories_sizes":[],"default_left":[1,1,1,1,1,1,0,1,0,0,1,1,0,0,0,0,0,0,0],"id":7,"left_children":[1,3,5,7,9,11,-1,13,-1,-1,15,17,-1,-1,-1,-1,-1,-1,-1],"loss_changes":[1.9844313E2,1.1138519E1,1.6667534E1,2.81398E0,4.5539117E0,2.1339033E1,0E0,1.0961914E-1,0E0,0E0,3.8222194E-1,9.717035E-1,0E0,0E0,0E0,0E0,0E0,0E0,0E0],"parents":[2147483647,0,0,1,1,2,2,3,3,4,4,5,5,7,7,10,10,11,11],"right_children":[2,4,6,8,10,12,-1,14,-1,-1,16,18,-1,-1,-1,-1,-1,-1,-1],"split_conditions":[5.128E-2,1.683E1,1.1445E2,5.7210004E-1,1.619E1,2.5654999E1,-3.4352276E-2,1.6749999E-1,-0E0,2.0691223E-2,8.8415E-3,1.1965E-1,-2.987844E-2,3.4162045E-2,1.0818797E-2,-2.1131052E-2,-3.5208543E-3,2.8833542E-2,4.379065E-3],"split_indices":[7,20,22,10,1,21,0,24,0,0,17,4,0,0,0,0,0,0,0],"split_type":[0,0,0,0,0,0,0,0,0,0,0,0,0,0,0,0,0,0,0],"sum_hessian":[9.803903E1,6.0341885E1,3.7697147E1,5.660571E1,3.736173E0,9.646875E0,2.8050272E1,5.560571E1,1E0,1.243602E0,2.4925709E0,4.713442E0,4.9334335E0,5.4373062E1,1.2326496E0,1.2462004E0,1.2463703E0,3.4779594E0,1.2354825E0],"tree_param":{"num_deleted":"0","num_feature":"30","num_nodes":"19","size_leaf_vector":"0"}},{"base_weights":[4.3260765E-1,1.5302814E0,-1.3183467E0,1.6375846E0,-9.351166E-2,5.9566444E-1,-1.5250335E0,1.6666428E0,-0E0,1.024001E0,-7.843164E-1,1.2651554E0,-6.32964E-1,1.0861926E-1,-1.6935872E0,5.2539206E-1,1.6825411E0,-1.0455208E0,-1.7410383E-1,1.1578293E0,-1.0890161E0],"categories":[],"categories_nodes":[],"categories_segments":[],"categories_sizes":[],"default_left":[1,1,1,1,1,1,1,1,0,0,1,0,0,1,0,0,0,0,0,0,0],"id":8,"left_children":[1,3,5,7,9,11,13,15,-1,-1,17,-1,-1,19,-1,-1,-1,-1,-1,-1,-1],"loss_changes":[1.9158328E2,1.0796936E1,1.6156036E1,2.7292633E0,4.4565835E0,4.482212E0,9.84005E0,1.3850403E-1,0E0,0E0,3.7438798E-1,0E0,0E0,6.5629377E0,0E0,0E0,0E0,0E0,0E0,0E0,0E0],"parents":[2147483647,0,0,1,1,2,2,3,3,4,4,5,5,6,6,7,7,10,10,13,13],"right_children":[2,4,6,8,10,12,14,16,-1,-1,18,-1,-1,20,-1,-1,-1,-1,-1,-1,-1],"split_conditions":[5.128E-2,1.683E1,2.0404999E1,5.7210004E-1,1.619E1,8.1955E-2,7.1865E2,3.309E-3,-0E0,2.048002E-2,8.8415E-3,2.5303109E-2,-1.265928E-2,2.5925E1,-3.3871744E-2,1.0507841E-2,3.3650823E-2,-2.0910416E-2,-3.4820763E-3,2.3156585E-2,-2.1780321E-2],"split_indices":[7,20,21,10,1,7,23,14,0,0,17,0,0,21,0,0,0,0,0,0,0],"split_type":[0,0,0,0,0,0,0,0,0,0,0,0,0,0,0,0,0,0,0,0,0],"sum_hessian":[9.763067E1,6.0087704E1,3.7542965E1,5.635516E1,3.7325425E0,3.47558E0,3.4067387E1,5.535516E1,1E0,1.2416304E0,2.4909122E0,2.2304544E0,1.2451253E0,3.2194538E0,3.084793E1,1.2283176E0,5.4126842E1,1.2447289E0,1.2461833E0,1.733781E0,1.485673E0],"tree_param":{"num_deleted":"0","num_feature":"30","num_nodes":"21","size_leaf_vector":"0"}},{"base_weights":[4.261339E-1,1.5073104E0,-1.2983559E0,1.6134338E0,-9.2548005E-2,-1.7054285E-1,-1.6681365E0,1.6422043E0,-0E0,8.379645E-1,-9.1382843E-1,1.187877E0,-1.4535667E0,1.6580331E0,5.1337063E-1,1.4087315E0,2.1355699E-1],"categories":[],"categories_nodes":[],"categories_segments":[],"categories_sizes":[],"default_left":[1,1,1,1,1,1,0,1,0,0,0,1,0,0,0,0,0],"id":9,"left_children":[1,3,5,7,9,11,-1,13,-1,-1,-1,15,-1,-1,-1,-1,-1],"loss_changes":[1.8500949E2,1.0473465E1,1.5717865E1,2.649582E0,4.379266E0,2.0180845E1,0E0,1.5084839E-1,0E0,0E0,0E0,9.2426205E-1,0E0,0E0,0E0,0E0,0E0],"parents":[2147483647,0,0,1,1,2,2,3,3,4,4,5,5,7,7,11,11],"right_children":[2,4,6,8,10,12,-1,14,-1,-1,-1,16,-1,-1,-1,-1,-1],"split_conditions":[5.128E-2,1.683E1,1.1445E2,5.7210004E-1,1.868E1,2.5654999E1,-3.3362728E-2,1.143E-1,-0E0,1.675929E-2,-1.8276569E-2,1.6605E-1,-2.9071333E-2,3.316066E-2,1.0267412E-2,2.817463E-2,4.27114E-3],"split_indices":[7,20,22,10,1,21,0,29,0,0,0,24,0,0,0,0,0],"split_type":[0,0,0,0,0,0,0,0,0,0,0,0,0,0,0,0,0],"sum_hessian":[9.717895E1,5.9808E1,3.737095E1,5.6079582E1,3.7284157E0,9.588298E0,2.778265E1,5.5079582E1,1E0,1.7384423E0,1.9899734E0,4.693328E0,4.89497E0,5.3855602E1,1.2239809E0,3.462584E0,1.2307438E0],"tree_param":{"num_deleted":"0","num_feature":"30","num_nodes":"17","size_leaf_vector":"0"}},{"base_weights":[4.1984403E-1,1.3608232E0,-1.5039891E0,1.5524449E0,-9.606353E-1,-1.579279E0,2.3154585E-1,1.6444964E0,7.383911E-1,2.5685656E-1,-1.3597049E0,-1.988416E-1,-1.6287733E0,1.145029E0,-4.8737213E-1],"categories":[],"categories_nodes":[],"categories_segments":[],"categories_sizes":[],"default_left":[1,1,1,1,1,1,0,0,1,0,0,0,0,0,0],"id":10,"left_children":[1,3,5,7,9,11,-1,-1,13,-1,-1,-1,-1,-1,-1],"loss_changes":[1.7889429E2,3.0907799E1,4.6205597E0,3.3918152E0,3.0992317E0,1.8171616E0,0E0,0E0,4.575219E0,0E0,0E0,0E0,0E0,0E0,0E0],"parents":[2147483647,0,0,1,1,2,2,3,3,4,4,5,5,8,8],"right_children":[2,4,6,8,10,12,-1,-1,14,-1,-1,-1,-1,-1,-1],"split_conditions":[1.4234999E-1,9.5745E2,1.08064994E-1,2.2455E1,2.071E-1,1.85E1,4.6309168E-3,3.288993E-2,1.012E2,5.137131E-3,-2.7194096E-2,-3.976832E-3,-3.2575466E-2,2.2900578E-2,-9.747443E-3],"split_indices":[27,23,16,1,26,13,0,0,22,0,0,0,0,0,0],"split_type":[0,0,0,0,0,0,0,0,0,0,0,0,0,0,0],"sum_hessian":[9.66904E1,6.51279E1,3.1562498E1,6.0467915E1,4.659985E0,3.0336494E1,1.226004E0,5.340847E1,7.059444E0,1.2383513E0,3.4216337E0,1.2237109E0,2.9112783E1,5.3503647E0,1.7090795E0],"tree_param":{"num_deleted":"0","num_feature":"30","num_nodes":"15","size_leaf_vector":"0"}},{"base_weights":[4.135376E-1,1.4646616E0,-1.2625003E0,1.5686749E0,-9.103421E-2,5.770651E-1,-1.4629402E0,1.5983955E0,1.3062105E-1,8.1876975E-1,-8.9348674E-1,1.221276E0,-6.0545087E-1,1.0544646E-1,-1.6259984E0,4.864938E-1,1.6143813E0,1.1177967E0,-1.0504332E0],"categories":[],"categories_nodes":[],"categories_segments":[],"categories_sizes":[],"default_left":[1,1,1,1,1,1,1,1,0,0,0,0,0,1,0,0,0,0,0],"id":11,"left_children":[1,3,5,7,9,11,13,15,-1,-1,-1,-1,-1,17,-1,-1,-1,-1,-1],"loss_changes":[1.7305914E2,9.882172E0,1.4853516E1,2.2048035E0,4.1754484E0,4.129562E0,9.005661E0,1.9648743E-1,0E0,0E0,0E0,0E0,0E0,6.0797668E0,0E0,0E0,0E0,0E0,0E0],"parents":[2147483647,0,0,1,1,2,2,3,3,4,4,5,5,6,6,7,7,13,13],"right_children":[2,4,6,8,10,12,14,16,-1,-1,-1,-1,-1,18,-1,-1,-1,-1,-1],"split_conditions":[5.128E-2,1.683E1,2.0404999E1,4.1184998E0,1.868E1,8.1955E-2,7.1865E2,3.309E-3,2.6124208E-3,1.6375395E-2,-1.7869735E-2,2.442552E-2,-1.2109017E-2,2.5925E1,-3.2519966E-2,9.729875E-3,3.2287624E-2,2.2355933E-2,-2.1008663E-2],"split_indices":[7,20,21,12,1,7,23,14,0,0,0,0,0,21,0,0,0,0,0],"split_type":[0,0,0,0,0,0,0,0,0,0,0,0,0,0,0,0,0,0,0],"sum_hessian":[9.618323E1,5.918905E1,3.6994183E1,5.5471874E1,3.717174E0,3.450229E0,3.3543953E1,5.42394E1,1.2324759E0,1.7325315E0,1.9846425E0,2.2122579E0,1.2379712E0,3.192262E0,3.0351692E1,1.2142513E0,5.3025146E1,1.7193534E0,1.4729085E0],"tree_param":{"num_deleted":"0","num_feature":"30","num_nodes":"19","size_leaf_vector":"0"}},{"base_weights":[4.0787536E-1,1.3232516E0,-1.463811E0,1.5105106E0,-9.341745E-1,-1.538103E0,2.3309699E-1,1.6011807E0,7.1216905E-1,2.5812867E-1,-1.3284702E0,-1.9512817E-1,-1.5865197E0,1.1086073E0,-4.7659805E-1],"categories":[],"categories_nodes":[],"categories_segments":[],"categories_sizes":[],"default_left":[1,1,1,1,1,1,0,0,1,0,0,0,0,0,0],"id":12,"left_children":[1,3,5,7,9,11,-1,-1,13,-1,-1,-1,-1,-1,-1],"loss_changes":[1.6748755E2,2.9064018E1,4.41922E0,3.259842E0,2.989057E0,1.7055435E0,0E0,0E0,4.298911E0,0E0,0E0,0E0,0E0,0E0,0E0],"parents":[2147483647,0,0,1,1,2,2,3,3,4,4,5,5,8,8],"right_children":[2,4,6,8,10,12,-1,-1,14,-1,-1,-1,-1,-1,-1],"split_conditions":[1.4234999E-1,9.5745E2,1.0797501E-2,2.2455E1,2.071E-1,1.85E1,4.6619396E-3,3.2023612E-2,1.012E2,5.1625734E-3,-2.6569404E-2,-3.9025634E-3,-3.1730395E-2,2.2172146E-2,-9.531961E-3],"split_indices":[27,23,19,1,26,13,0,0,22,0,0,0,0,0,0],"split_type":[0,0,0,0,0,0,0,0,0,0,0,0,0,0,0],"sum_hessian":[9.562687E1,6.441618E1,3.1210684E1,5.9787533E1,4.6286507E0,2.999123E1,1.2194543E0,5.278675E1,7.000782E0,1.2361184E0,3.392532E0,1.2186534E0,2.8772577E1,5.3005495E0,1.7002327E0],"tree_param":{"num_deleted":"0","num_feature":"30","num_nodes":"15","size_leaf_vector":"0"}},{"base_weights":[4.0204188E-1,1.4253474E0,-1.2292434E0,1.5275315E0,-8.958365E-2,5.6387454E-1,-1.4259056E0,1.5573238E0,1.12822264E-1,8.0041796E-1,-8.7398E-1,1.195578E0,-5.9392786E-1,1.0215519E-1,-1.5856966E0,4.655844E-1,1.5732588E0,1.0931817E0,-1.02858E0],"categories":[],"categories_nodes":[],"categories_segments":[],"categories_sizes":[],"default_left":[1,1,1,1,1,1,1,1,0,0,0,0,0,1,0,0,0,0,0],"id":13,"left_children":[1,3,5,7,9,11,13,15,-1,-1,-1,-1,-1,17,-1,-1,-1,-1,-1],"loss_changes":[1.6209822E2,9.3461075E0,1.40508995E1,2.175583E0,3.983313E0,3.9496922E0,8.496887E0,2.1664429E-1,0E0,0E0,0E0,0E0,0E0,5.7985497E0,0E0,0E0,0E0,0E0,0E0],"parents":[2147483647,0,0,1,1,2,2,3,3,4,4,5,5,6,6,7,7,13,13],"right_children":[2,4,6,8,10,12,14,16,-1,-1,-1,-1,-1,18,-1,-1,-1,-1,-1],"split_conditions":[5.128E-2,1.683E1,2.0404999E1,4.1184998E0,1.868E1,1.7255001E1,7.1865E2,3.309E-3,2.2564454E-3,1.6008358E-2,-1.7479599E-2,2.391156E-2,-1.1878557E-2,2.5925E1,-3.171393E-2,9.311688E-3,3.1465173E-2,2.1863634E-2,-2.0571599E-2],"split_indices":[7,20,21,12,1,20,23,14,0,0,0,0,0,21,0,0,0,0,0],"split_type":[0,0,0,0,0,0,0,0,0,0,0,0,0,0,0,0,0,0,0],"sum_hessian":[9.50557E1,5.849071E1,3.6564995E1,5.4786945E1,3.7037644E0,3.429394E0,3.31356E1,5.3558254E1,1.2286909E0,1.7255143E0,1.97825E0,2.197693E0,1.2317008E0,3.171134E0,2.9964466E1,1.2051985E0,5.2353058E1,1.7076687E0,1.4634652E0],"tree_param":{"num_deleted":"0","num_feature":"30","num_nodes":"19","size_leaf_vector":"0"}},{"base_weights":[3.9681208E-1,1.2885425E0,-1.4267374E0,1.471863E0,-9.0911186E-1,-1.5000184E0,2.3042998E-1,1.5614154E0,6.873199E-1,2.5930652E-1,-1.2992107E0,-1.9152492E-1,-1.5475191E0,1.1681159E0,-2.914741E-1],"categories":[],"categories_nodes":[],"categories_segments":[],"categories_sizes":[],"default_left":[1,1,1,1,1,1,0,0,1,0,0,0,0,0,0],"id":14,"left_children":[1,3,5,7,9,11,-1,-1,13,-1,-1,-1,-1,-1,-1],"loss_changes":[1.5703467E2,2.7372597E1,4.2096024E0,3.1442413E0,2.8864741E0,1.6057816E0,0E0,0E0,4.0752954E0,0E0,0E0,0E0,0E0,0E0,0E0],"parents":[2147483647,0,0,1,1,2,2,3,3,4,4,5,5,8,8],"right_children":[2,4,6,8,10,12,-1,-1,14,-1,-1,-1,-1,-1,-1],"split_conditions":[1.4234999E-1,9.5745E2,1.0797501E-2,2.2455E1,2.071E-1,1.85E1,4.6085995E-3,3.1228308E-2,8.7475006E1,5.1861303E-3,-2.5984213E-2,-3.8304983E-3,-3.095038E-2,2.3362316E-2,-5.829482E-3],"split_indices":[27,23,19,1,26,13,0,0,2,0,0,0,0,0,0],"split_type":[0,0,0,0,0,0,0,0,0,0,0,0,0,0,0],"sum_hessian":[9.4439926E1,6.3621758E1,3.0818167E1,5.9028103E1,4.593657E0,2.9603897E1,1.2142708E0,5.209181E1,6.936292E0,1.2337191E0,3.359938E0,1.213305E0,2.839059E1,4.5217357E0,2.4145567E0],"tree_param":{"num_deleted":"0","num_feature":"30","num_nodes":"15","size_leaf_vector":"0"}},{"base_weights":[3.9144525E-1,1.3890883E0,-1.1985384E0,1.4897345E0,-8.855574E-2,5.514282E-1,-1.39183E0,1.5195572E0,9.87262E-2,9.5122755E-1,-7.282523E-1,1.1690028E0,-5.787702E-1,9.902445E-2,-1.548722E0,4.4547275E-1,1.535496E0,-9.9369746E-1,-1.3766517E-1,1.0698549E0,-1.0077989E0],"categories":[],"categories_nodes":[],"categories_segments":[],"categories_sizes":[],"default_left":[1,1,1,1,1,1,1,1,0,0,1,0,0,1,0,0,0,0,0,0,0],"id":15,"left_children":[1,3,5,7,9,11,13,15,-1,-1,17,-1,-1,19,-1,-1,-1,-1,-1,-1,-1],"loss_changes":[1.5206392E2,8.865143E0,1.3314064E1,2.1330032E0,3.8113346E0,3.751689E0,8.03273E0,2.3718262E-1,0E0,0E0,4.0705442E-1,0E0,0E0,5.534731E0,0E0,0E0,0E0,0E0,0E0,0E0,0E0],"parents":[2147483647,0,0,1,1,2,2,3,3,4,4,5,5,6,6,7,7,10,10,13,13],"right_children":[2,4,6,8,10,12,14,16,-1,-1,18,-1,-1,20,-1,-1,-1,-1,-1,-1,-1],"split_conditions":[5.128E-2,1.683E1,2.0404999E1,4.1184998E0,1.619E1,1.7255001E1,7.1865E2,3.309E-3,1.974524E-3,1.902455E-2,8.8415E-3,2.3380054E-2,-1.1575405E-2,2.5925E1,-3.097444E-2,8.909455E-3,3.0709919E-2,-1.9873949E-2,-2.7533034E-3,2.1397097E-2,-2.0155977E-2],"split_indices":[7,20,21,12,1,20,23,14,0,0,17,0,0,21,0,0,0,0,0,0,0],"split_type":[0,0,0,0,0,0,0,0,0,0,0,0,0,0,0,0,0,0,0,0,0],"sum_hessian":[9.381504E1,5.7722885E1,3.6092155E1,5.403429E1,3.6885974E0,3.4057088E0,3.2686447E1,5.2809654E1,1.2246344E0,1.2194562E0,2.4691412E0,2.1801014E0,1.2256074E0,3.147395E0,2.9539053E1,1.1955117E0,5.1614143E1,1.2325852E0,1.236556E0,1.6944973E0,1.4528975E0],"tree_param":{"num_deleted":"0","num_feature":"30","num_nodes":"21","size_leaf_vector":"0"}},{"base_weights":[3.8657525E-1,1.2563809E0,-1.3924211E0,1.4360725E0,-8.845383E-1,-1.4650363E0,2.3172075E-1,1.5247452E0,6.638414E-1,2.607627E-1,-1.2709705E0,-1.8802163E-1,-1.5117724E0,1.539493E0,4.9018636E-1,1.1355025E0,-2.8899193E-1,-4.848799E-1,-1.5375671E0],"categories":[],"categories_nodes":[],"categories_segments":[],"categories_sizes":[],"default_left":[1,1,1,1,1,1,0,1,1,0,0,0,1,0,0,0,0,0,0],"id":16,"left_children":[1,3,5,7,9,11,-1,13,15,-1,-1,-1,17,-1,-1,-1,-1,-1,-1],"loss_changes":[1.4743239E2,2.5798172E1,4.0415688E0,3.0417252E0,2.7903032E0,1.5171967E0,0E0,4.3823242E-2,3.8645363E0,0E0,0E0,0E0,2.1995544E-2,0E0,0E0,0E0,0E0,0E0,0E0],"parents":[2147483647,0,0,1,1,2,2,3,3,4,4,5,5,7,7,8,8,12,12],"right_children":[2,4,6,8,10,12,-1,14,16,-1,-1,-1,18,-1,-1,-1,-1,-1,-1],"split_conditions":[1.4234999E-1,9.5745E2,1.08064994E-1,2.2455E1,2.071E-1,1.85E1,4.634415E-3,4.054E1,8.7475006E1,5.2152537E-3,-2.5419408E-2,-3.7604326E-3,9.204E-2,3.0789858E-2,9.803727E-3,2.271005E-2,-5.7798387E-3,-9.697598E-3,-3.0751342E-2],"split_indices":[27,23,16,1,26,13,0,13,2,0,0,0,6,0,0,0,0,0,0],"split_type":[0,0,0,0,0,0,0,0,0,0,0,0,0,0,0,0,0,0,0],"sum_hessian":[9.31481E1,6.275771E1,3.039039E1,5.8201935E1,4.5557756E0,2.9183561E1,1.2068284E0,5.1333057E1,6.868874E0,1.2313946E0,3.324381E0,1.207694E0,2.7975868E1,5.0130375E1,1.2026856E0,4.466303E0,2.4025712E0,1.1706284E0,2.6805239E1],"tree_param":{"num_deleted":"0","num_feature":"30","num_nodes":"19","size_leaf_vector":"0"}},{"base_weights":[3.8157225E-1,1.3554512E0,-1.1700087E0,1.4548253E0,-8.808209E-2,5.4070246E-1,-1.3604497E0,1.4845779E0,8.9682505E-2,7.696998E-1,-8.417371E-1,1.1471745E0,-5.681982E-1,9.6070625E-2,-1.5147622E0,1.5005667E0,4.218552E-1,1.0475903E0,-9.878416E-1],"categories":[],"categories_nodes":[],"categories_segments":[],"categories_sizes":[],"default_left":[1,1,1,1,1,1,1,1,0,0,0,0,0,1,0,0,0,0,0],"id":17,"left_children":[1,3,5,7,9,11,13,15,-1,-1,-1,-1,-1,17,-1,-1,-1,-1,-1],"loss_changes":[1.4283417E2,8.432899E0,1.2654167E1,2.0691452E0,3.6679633E0,3.5976E0,7.6082916E0,2.6755524E-1,0E0,0E0,0E0,0E0,0E0,5.285245E0,0E0,0E0,0E0,0E0,0E0],"parents":[2147483647,0,0,1,1,2,2,3,3,4,4,5,5,6,6,7,7,13,13],"right_children":[2,4,6,8,10,12,14,16,-1,-1,-1,-1,-1,18,-1,-1,-1,-1,-1],"split_conditions":[5.128E-2,1.683E1,2.0404999E1,4.1184998E0,1.868E1,8.1955E-2,7.1865E2,1.3319999E-1,1.7936501E-3,1.5393996E-2,-1.6834741E-2,2.294349E-2,-1.1363964E-2,2.5925E1,-3.0295243E-2,3.0011334E-2,8.437104E-3,2.0951804E-2,-1.9756831E-2],"split_indices":[7,20,21,12,1,7,23,5,0,0,0,0,0,21,0,0,0,0,0],"split_type":[0,0,0,0,0,0,0,0,0,0,0,0,0,0,0,0,0,0,0],"sum_hessian":[9.2476776E1,5.6893135E1,3.558364E1,5.32215E1,3.6716335E0,3.3802261E0,3.2203415E1,5.2000683E1,1.2208191E0,1.7072341E0,1.9643993E0,2.162831E0,1.217395E0,3.1211371E0,2.908228E1,5.0824024E1,1.1766589E0,1.679919E0,1.441218E0],"tree_param":{"num_deleted":"0","num_feature":"30","num_nodes":"19","size_leaf_vector":"0"}},{"base_weights":[3.7706414E-1,1.2265757E0,-1.3606471E0,1.4030375E0,-8.6186486E-1,-1.4325714E0,2.2916844E-1,1.490939E0,6.423894E-1,2.6176807E-1,-1.2450659E0,-1.846221E-1,-1.4786693E0,1.5055423E0,4.7718894E-1,1.1053485E0,-2.8575414E-1,-4.7062582E-1,-1.5041254E0],"categories":[],"categories_nodes":[],"categories_segments":[],"categories_sizes":[],"default_left":[1,1,1,1,1,1,0,1,1,0,0,0,1,0,0,0,0,0,0],"id":18,"left_children":[1,3,5,7,9,11,-1,13,15,-1,-1,-1,17,-1,-1,-1,-1,-1,-1],"loss_changes":[1.3861101E2,2.4364883E1,3.865467E0,2.9414825E0,2.7004828E0,1.4374695E0,0E0,4.4265747E-2,3.6666768E0,0E0,0E0,0E0,2.425003E-2,0E0,0E0,0E0,0E0,0E0,0E0],"parents":[2147483647,0,0,1,1,2,2,3,3,4,4,5,5,7,7,8,8,12,12],"right_children":[2,4,6,8,10,12,-1,14,16,-1,-1,-1,18,-1,-1,-1,-1,-1,-1],"split_conditions":[1.4234999E-1,9.5745E2,1.0797501E-2,2.2455E1,2.071E-1,1.85E1,4.583369E-3,4.054E1,8.7475006E1,5.2353614E-3,-2.4901317E-2,-3.6924419E-3,2.047E-2,3.0110845E-2,9.543778E-3,2.210697E-2,-5.715083E-3,-9.412516E-3,-3.0082507E-2],"split_indices":[27,23,19,1,26,13,0,13,2,0,0,0,16,0,0,0,0,0,0],"split_type":[0,0,0,0,0,0,0,0,0,0,0,0,0,0,0,0,0,0,0],"sum_hessian":[9.176624E1,6.1832466E1,2.9933777E1,5.7317627E1,4.514839E0,2.8732794E1,1.2009836E0,5.0519447E1,6.7981796E0,1.2287512E0,3.2860878E0,1.201843E0,2.753095E1,4.9323807E1,1.1956393E0,4.4083605E0,2.3898191E0,1.1581144E0,2.6372835E1],"tree_param":{"num_deleted":"0","num_feature":"30","num_nodes":"19","size_leaf_vector":"0"}},{"base_weights":[3.723894E-1,1.2119921E0,-1.3448566E0,1.3870143E0,-8.512467E-1,-1.4166809E0,2.3047729E-1,1.4260519E0,6.4898185E-2,2.5885853E-1,-1.2316899E0,-1.826208E-1,-1.4626257E0,1.5078565E0,8.673347E-1,-4.660302E-1,-1.487899E0],"categories":[],"categories_nodes":[],"categories_segments":[],"categories_sizes":[],"default_left":[1,1,1,1,1,1,0,1,0,0,0,0,1,0,0,0,0],"id":19,"left_children":[1,3,5,7,9,11,-1,13,-1,-1,-1,-1,15,-1,-1,-1,-1],"loss_changes":[1.3435442E2,2.3696823E1,3.8003922E0,2.8935623E0,2.6396933E0,1.405693E0,0E0,1.2585526E0,0E0,0E0,0E0,0E0,1.9439697E-2,0E0,0E0,0E0,0E0],"parents":[2147483647,0,0,1,1,2,2,3,3,4,4,5,5,7,7,12,12],"right_children":[2,4,6,8,10,12,-1,14,-1,-1,-1,-1,16,-1,-1,-1,-1],"split_conditions":[1.4234999E-1,9.5745E2,1.08064994E-1,4.2190002E1,2.071E-1,1.85E1,4.6095457E-3,2.1575E1,1.2979637E-3,5.1771705E-3,-2.4633799E-2,-3.6524157E-3,2.047E-2,3.0157128E-2,1.7346693E-2,-9.320604E-3,-2.9757978E-2],"split_indices":[27,23,16,13,26,13,0,1,0,0,0,0,16,0,0,0,0],"split_type":[0,0,0,0,0,0,0,0,0,0,0,0,0,0,0,0,0],"sum_hessian":[9.105443E1,6.1352127E1,2.97023E1,5.685678E1,4.495345E0,2.850345E1,1.1988504E0,5.5149784E1,1.7069987E0,1.2289493E0,3.2663958E0,1.2016735E0,2.7301777E1,4.662447E1,8.525312E0,1.1560264E0,2.614575E1],"tree_param":{"num_deleted":"0","num_feature":"30","num_nodes":"17","size_leaf_vector":"0"}},{"base_weights":[3.6775488E-1,1.3096404E0,-1.1318458E0,1.4076087E0,-8.921731E-2,5.2761465E-1,-1.318762E0,1.4374558E0,7.4292675E-2,7.460384E-1,-8.201054E-1,1.1142235E0,-5.4599E-1,9.168589E-2,-1.46968E0,3.833562E-1,1.4540548E0,1.0157603E0,-9.5939E-1],"categories":[],"categories_nodes":[],"categories_segments":[],"categories_sizes":[],"default_left":[1,1,1,1,1,1,1,1,0,0,0,0,0,1,0,0,0,0,0],"id":20,"left_children":[1,3,5,7,9,11,13,15,-1,-1,-1,-1,-1,17,-1,-1,-1,-1,-1],"loss_changes":[1.3048792E2,7.8771515E0,1.1791477E1,1.9991989E0,3.445955E0,3.338831E0,7.0391846E0,3.4729004E-1,0E0,0E0,0E0,0E0,0E0,4.9338894E0,0E0,0E0,0E0,0E0,0E0],"parents":[2147483647,0,0,1,1,2,2,3,3,4,4,5,5,6,6,7,7,13,13],"right_children":[2,4,6,8,10,12,14,16,-1,-1,-1,-1,-1,18,-1,-1,-1,-1,-1],"split_conditions":[5.128E-2,1.683E1,2.0404999E1,4.1184998E0,1.868E1,8.1955E-2,7.1865E2,3.309E-3,1.4858535E-3,1.4920767E-2,-1.6402107E-2,2.2284469E-2,-1.0919799E-2,2.5925E1,-2.9393598E-2,7.6671243E-3,2.9081097E-2,2.0315206E-2,-1.9187799E-2],"split_indices":[7,20,21,12,1,7,23,14,0,0,0,0,0,21,0,0,0,0,0],"split_type":[0,0,0,0,0,0,0,0,0,0,0,0,0,0,0,0,0,0,0],"sum_hessian":[9.0334496E1,5.5562725E1,3.4771767E1,5.1920258E1,3.6424658E0,3.3355627E0,3.1436205E1,5.0707047E1,1.2132119E0,1.6901925E0,1.9522734E0,2.1325312E0,1.2030315E0,3.076487E0,2.8359718E1,1.1596538E0,4.9547394E1,1.6550319E0,1.4214551E0],"tree_param":{"num_deleted":"0","num_feature":"30","num_nodes":"19","size_leaf_vector":"0"}},{"base_weights":[3.6368564E-1,1.1848661E0,-1.3164412E0,1.3570315E0,-8.300679E-1,-1.3877816E0,2.2793119E-1,1.4446386E0,6.096627E-1,2.598072E-1,-1.2078964E0,-1.7935607E-1,-1.4332705E0,5.027754E-1,1.4612336E0,1.1983727E0,-1.4010173E-1,-4.525548E-1,-1.4583287E0],"categories":[],"categories_nodes":[],"categories_segments":[],"categories_sizes":[],"default_left":[1,1,1,1,1,1,0,1,1,0,0,0,1,0,0,0,0,0,0],"id":21,"left_children":[1,3,5,7,9,11,-1,13,15,-1,-1,-1,17,-1,-1,-1,-1,-1,-1],"loss_changes":[1.2652045E2,2.2413475E1,3.6445694E0,2.8455887E0,2.5584245E0,1.337925E0,0E0,5.013275E-2,3.567292E0,0E0,0E0,0E0,2.3704529E-2,0E0,0E0,0E0,0E0,0E0,0E0],"parents":[2147483647,0,0,1,1,2,2,3,3,4,4,5,5,7,7,8,8,12,12],"right_children":[2,4,6,8,10,12,-1,14,16,-1,-1,-1,18,-1,-1,-1,-1,-1,-1],"split_conditions":[1.4234999E-1,9.5745E2,1.0797501E-2,2.2455E1,2.071E-1,1.85E1,4.558624E-3,3.309E-3,1.443E1,5.196144E-3,-2.4157926E-2,-3.5871214E-3,9.204E-2,1.00555075E-2,2.9224671E-2,2.3967454E-2,-2.8020346E-3,-9.051096E-3,-2.9166574E-2],"split_indices":[27,23,19,1,26,13,0,14,20,0,0,0,6,0,0,0,0,0,0],"split_type":[0,0,0,0,0,0,0,0,0,0,0,0,0,0,0,0,0,0,0],"sum_hessian":[8.9571724E1,6.0363285E1,2.920844E1,5.591238E1,4.4509034E0,2.8015684E1,1.1927558E0,4.9210873E1,6.7015076E0,1.2262008E0,3.2247026E0,1.1956518E0,2.6820032E1,1.3939267E0,4.7816948E1,3.4187756E0,3.282732E0,1.1430784E0,2.5676954E1],"tree_param":{"num_deleted":"0","num_feature":"30","num_nodes":"19","size_leaf_vector":"0"}},{"base_weights":[3.5948902E-1,1.2814506E0,-1.1080742E0,1.3785177E0,-8.762892E-2,5.173014E-1,-1.2926877E0,1.408647E0,6.1244298E-2,7.320961E-1,-8.044105E-1,1.0938952E0,-5.366445E-1,8.9033306E-2,-1.4416637E0,3.7483394E-1,1.4251302E0,9.960645E-1,-9.416321E-1],"categories":[],"categories_nodes":[],"categories_segments":[],"categories_sizes":[],"default_left":[1,1,1,1,1,1,1,1,0,0,0,0,0,1,0,0,0,0,0],"id":22,"left_children":[1,3,5,7,9,11,13,15,-1,-1,-1,-1,-1,17,-1,-1,-1,-1,-1],"loss_changes":[1.22945724E2,7.5130997E0,1.1228287E1,1.9776535E0,3.3052125E0,3.202298E0,6.692135E0,3.31398E-1,0E0,0E0,0E0,0E0,0E0,4.7196407E0,0E0,0E0,0E0,0E0,0E0],"parents":[2147483647,0,0,1,1,2,2,3,3,4,4,5,5,6,6,7,7,13,13],"right_children":[2,4,6,8,10,12,14,16,-1,-1,-1,-1,-1,18,-1,-1,-1,-1,-1],"split_conditions":[5.128E-2,1.683E1,2.0404999E1,4.1184998E0,1.868E1,1.7255001E1,7.1865E2,3.309E-3,1.2248859E-3,1.4641921E-2,-1.608821E-2,2.1877903E-2,-1.073289E-2,2.5925E1,-2.8833274E-2,7.4966787E-3,2.8502604E-2,1.992129E-2,-1.883264E-2],"split_indices":[7,20,21,12,1,20,23,14,0,0,0,0,0,21,0,0,0,0,0],"split_type":[0,0,0,0,0,0,0,0,0,0,0,0,0,0,0,0,0,0,0],"sum_hessian":[8.881704E1,5.462623E1,3.419081E1,5.100323E1,3.6229987E0,3.303555E0,3.0887257E1,4.9794937E1,1.2082934E0,1.6801648E0,1.9428339E0,2.1108465E0,1.1927085E0,3.0452821E0,2.7841974E1,1.154058E0,4.864088E1,1.6376495E0,1.4076326E0],"tree_param":{"num_deleted":"0","num_feature":"30","num_nodes":"19","size_leaf_vector":"0"}},{"base_weights":[3.5567692E-1,1.1597211E0,-1.2898754E0,1.32931E0,-8.0981255E-1,-1.3609996E0,2.2909962E-1,1.3687514E0,4.064254E-2,2.606876E-1,-1.1853716E0,-1.7618267E-1,-1.406132E0,1.4505861E0,8.1768507E-1,-4.4131464E-1,-1.4309556E0],"categories":[],"categories_nodes":[],"categories_segments":[],"categories_sizes":[],"default_left":[1,1,1,1,1,1,0,1,0,0,0,0,1,0,0,0,0],"id":23,"left_children":[1,3,5,7,9,11,-1,13,-1,-1,-1,-1,15,-1,-1,-1,-1],"loss_changes":[1.19286156E2,2.1227783E1,3.5199242E0,2.7869492E0,2.4818003E0,1.276844E0,0E0,1.259697E0,0E0,0E0,0E0,0E0,2.2853851E-2,0E0,0E0,0E0,0E0],"parents":[2147483647,0,0,1,1,2,2,3,3,4,4,5,5,7,7,12,12],"right_children":[2,4,6,8,10,12,-1,14,-1,-1,-1,-1,16,-1,-1,-1,-1],"split_conditions":[1.4234999E-1,9.5745E2,1.08064994E-1,4.2190002E1,2.071E-1,1.85E1,4.581992E-3,2.1575E1,8.128508E-4,5.2137515E-3,-2.3707433E-2,-3.5236534E-3,2.047E-2,2.901172E-2,1.63537E-2,-8.826292E-3,-2.8619112E-2],"split_indices":[27,23,16,13,26,13,0,1,0,0,0,0,16,0,0,0,0],"split_type":[0,0,0,0,0,0,0,0,0,0,0,0,0,0,0,0,0],"sum_hessian":[8.8026184E1,5.933121E1,2.8694977E1,5.4926746E1,4.4044647E0,2.7510818E1,1.1841602E0,5.3235264E1,1.6914817E0,1.2233304E0,3.1811347E0,1.1894358E0,2.6321383E1,4.4930634E1,8.30463E0,1.1312505E0,2.5190132E1],"tree_param":{"num_deleted":"0","num_feature":"30","num_nodes":"17","size_leaf_vector":"0"}},{"base_weights":[3.5156104E-1,1.2549163E0,-1.0858765E0,1.3514174E0,-8.8334635E-2,5.0869143E-1,-1.2686568E0,1.3816599E0,5.4363824E-2,7.1717995E-1,-7.9090106E-1,1.0740004E0,-5.2381015E-1,8.6385705E-2,-1.4158964E0,3.5857648E-1,1.3983046E0,9.771256E-1,-9.2462105E-1],"categories":[],"categories_nodes":[],"categories_segments":[],"categories_sizes":[],"default_left":[1,1,1,1,1,1,1,1,0,0,0,0,0,1,0,0,0,0,0],"id":24,"left_children":[1,3,5,7,9,11,13,15,-1,-1,-1,-1,-1,17,-1,-1,-1,-1,-1],"loss_changes":[1.1595822E2,7.2043304E0,1.0727928E1,1.9275742E0,3.1716797E0,3.0557036E0,6.371643E0,3.475113E-1,0E0,0E0,0E0,0E0,0E0,4.516841E0,0E0,0E0,0E0,0E0,0E0],"parents":[2147483647,0,0,1,1,2,2,3,3,4,4,5,5,6,6,7,7,13,13],"right_children":[2,4,6,8,10,12,14,16,-1,-1,-1,-1,-1,18,-1,-1,-1,-1,-1],"split_conditions":[5.128E-2,1.683E1,2.0404999E1,4.1184998E0,1.868E1,1.7255001E1,7.1865E2,3.309E-3,1.0872765E-3,1.4343599E-2,-1.581802E-2,2.1480007E-2,-1.0476203E-2,2.5925E1,-2.8317928E-2,7.1715293E-3,2.7966091E-2,1.9542512E-2,-1.8492421E-2],"split_indices":[7,20,21,12,1,20,23,14,0,0,0,0,0,21,0,0,0,0,0],"split_type":[0,0,0,0,0,0,0,0,0,0,0,0,0,0,0,0,0,0,0],"sum_hessian":[8.725109E1,5.3657253E1,3.359384E1,5.005514E1,3.6021118E0,3.2713833E0,3.0322458E1,4.885089E1,1.2042497E0,1.6684179E0,1.933694E0,2.0879881E0,1.1833951E0,3.0124297E0,2.7310028E1,1.1429259E0,4.7707966E1,1.619284E0,1.3931456E0],"tree_param":{"num_deleted":"0","num_feature":"30","num_nodes":"19","size_leaf_vector":"0"}},{"base_weights":[3.479805E-1,1.1357809E0,-1.2649709E0,1.3029718E0,-7.903918E-1,-1.3358251E0,2.2657193E-1,1.3908184E0,5.6786084E-1,2.6151907E-1,-1.1639965E0,-1.7309554E-1,-1.3806851E0,1.405443E0,4.2989713E-1,1.1520152E0,-1.6164632E-1,-4.287596E-1,-1.4054114E0],"categories":[],"categories_nodes":[],"categories_segments":[],"categories_sizes":[],"default_left":[1,1,1,1,1,1,0,1,1,0,0,0,1,0,0,0,0,0,0],"id":25,"left_children":[1,3,5,7,9,11,-1,13,15,-1,-1,-1,17,-1,-1,-1,-1,-1,-1],"loss_changes":[1.1254214E2,2.0117722E1,3.3849335E0,2.7564926E0,2.4094312E0,1.2208519E0,0E0,7.546234E-2,3.404463E0,0E0,0E0,0E0,2.8339386E-2,0E0,0E0,0E0,0E0,0E0,0E0],"parents":[2147483647,0,0,1,1,2,2,3,3,4,4,5,5,7,7,8,8,12,12],"right_children":[2,4,6,8,10,12,-1,14,16,-1,-1,-1,18,-1,-1,-1,-1,-1,-1],"split_conditions":[1.4234999E-1,9.5745E2,1.08064994E-1,2.2455E1,2.071E-1,1.85E1,4.5314385E-3,4.054E1,1.443E1,5.230381E-3,-2.327993E-2,-3.4619106E-3,9.204E-2,2.8108858E-2,8.597942E-3,2.3040304E-2,-3.2329264E-3,-8.575192E-3,-2.8108226E-2],"split_indices":[27,23,16,1,26,13,0,13,20,0,0,0,6,0,0,0,0,0,0],"split_type":[0,0,0,0,0,0,0,0,0,0,0,0,0,0,0,0,0,0,0],"sum_hessian":[8.6437485E1,5.8272007E1,2.816548E1,5.3915695E1,4.3563113E0,2.698785E1,1.1776294E0,4.73637E1,6.5519953E0,1.2203472E0,3.1359642E0,1.1830432E0,2.5804806E1,4.6197998E1,1.1657039E0,3.3168504E0,3.2351446E0,1.1176399E0,2.4687166E1],"tree_param":{"num_deleted":"0","num_feature":"30","num_nodes":"19","size_leaf_vector":"0"}},{"base_weights":[3.4424764E-1,1.2299972E0,-1.0647823E0,1.3259299E0,-8.773707E-2,5.0026906E-1,-1.2458901E0,1.3563863E0,4.648332E-2,7.0289564E-1,-7.761595E-1,1.0565492E0,-5.152429E-1,8.394584E-2,-1.3915914E0,1.3730195E0,3.3431223E-1,9.591142E-1,-9.083023E-1],"categories":[],"categories_nodes":[],"categories_segments":[],"categories_sizes":[],"default_left":[1,1,1,1,1,1,1,1,0,0,0,0,0,1,0,0,0,0,0],"id":26,"left_children":[1,3,5,7,9,11,13,15,-1,-1,-1,-1,-1,17,-1,-1,-1,-1,-1],"loss_changes":[1.09435074E2,6.899643E0,1.0253548E1,1.888443E0,3.0380354E0,2.9381382E0,6.0726967E0,3.7197876E-1,0E0,0E0,0E0,0E0,0E0,4.325926E0,0E0,0E0,0E0,0E0,0E0],"parents":[2147483647,0,0,1,1,2,2,3,3,4,4,5,5,6,6,7,7,13,13],"right_children":[2,4,6,8,10,12,14,16,-1,-1,-1,-1,-1,18,-1,-1,-1,-1,-1],"split_conditions":[5.128E-2,1.683E1,2.0404999E1,4.1184998E0,1.868E1,8.1955E-2,7.1865E2,1.143E-1,9.296664E-4,1.4057913E-2,-1.5523191E-2,2.1130983E-2,-1.0304857E-2,2.5925E1,-2.7831828E-2,2.7460389E-2,6.6862446E-3,1.9182283E-2,-1.8166047E-2],"split_indices":[7,20,21,12,1,7,23,29,0,0,0,0,0,21,0,0,0,0,0],"split_type":[0,0,0,0,0,0,0,0,0,0,0,0,0,0,0,0,0,0,0],"sum_hessian":[8.563563E1,5.265961E1,3.2976017E1,4.9080288E1,3.5793223E0,3.2374232E0,2.9738596E1,4.7880386E1,1.1999019E0,1.6562011E0,1.9231212E0,2.0655434E0,1.1718798E0,2.9783778E0,2.6760218E1,4.6775795E1,1.1045899E0,1.6002984E0,1.3780794E0],"tree_param":{"num_deleted":"0","num_feature":"30","num_nodes":"19","size_leaf_vector":"0"}},{"base_weights":[3.4087226E-1,1.1134458E0,-1.2413715E0,1.2784755E0,-7.717486E-1,-1.3121843E0,2.2765294E-1,1.3663585E0,5.4997444E-1,2.622964E-1,-1.14368E0,-1.7009524E-1,-1.3568426E0,4.492209E-1,1.3835145E0,1.128602E0,-1.6540489E-1,-4.1830546E-1,-1.3814368E0],"categories":[],"categories_nodes":[],"categories_segments":[],"categories_sizes":[],"default_left":[1,1,1,1,1,1,0,1,1,0,0,0,1,0,0,0,0,0,0],"id":27,"left_children":[1,3,5,7,9,11,-1,13,15,-1,-1,-1,17,-1,-1,-1,-1,-1,-1],"loss_changes":[1.0626895E2,1.9087341E1,3.27631E0,2.6976776E0,2.3409164E0,1.1695251E0,0E0,1.24320984E-1,3.2800868E0,0E0,0E0,0E0,2.8713226E-2,0E0,0E0,0E0,0E0,0E0,0E0],"parents":[2147483647,0,0,1,1,2,2,3,3,4,4,5,5,7,7,8,8,12,12],"right_children":[2,4,6,8,10,12,-1,14,16,-1,-1,-1,18,-1,-1,-1,-1,-1,-1],"split_conditions":[1.4234999E-1,9.5745E2,1.0797501E-2,2.2455E1,2.071E-1,1.85E1,4.5530587E-3,3.309E-3,1.443E1,5.245928E-3,-2.28736E-2,-3.4019046E-3,9.204E-2,8.984418E-3,2.767029E-2,2.257204E-2,-3.3080976E-3,-8.366109E-3,-2.7628737E-2],"split_indices":[27,23,19,1,26,13,0,14,20,0,0,0,6,0,0,0,0,0,0],"split_type":[0,0,0,0,0,0,0,0,0,0,0,0,0,0,0,0,0,0,0],"sum_hessian":[8.480397E1,5.718038E1,2.7623589E1,5.2873657E1,4.306724E0,2.6455112E1,1.1684762E0,4.6400536E1,6.473121E0,1.2172614E0,3.0894625E0,1.1764896E0,2.5278622E1,1.3512048E0,4.504933E1,3.2592673E0,3.2138538E0,1.1053597E0,2.4173262E1],"tree_param":{"num_deleted":"0","num_feature":"30","num_nodes":"19","size_leaf_vector":"0"}},{"base_weights":[3.3734056E-1,1.2065203E0,-1.0450943E0,1.3019434E0,-8.6200625E-2,4.913242E-1,-1.2245512E0,1.332836E0,3.4520447E-2,6.9037783E-1,-7.618857E-1,1.0370218E0,-5.03204E-1,8.157691E-2,-1.3688831E0,3.245281E-1,1.3499955E0,9.4182265E-1,-8.926267E-1],"categories":[],"categories_nodes":[],"categories_segments":[],"categories_sizes":[],"default_left":[1,1,1,1,1,1,1,1,0,0,0,0,0,1,0,0,0,0,0],"id":28,"left_children":[1,3,5,7,9,11,13,15,-1,-1,-1,-1,-1,17,-1,-1,-1,-1,-1],"loss_changes":[1.03381165E2,6.6062393E0,9.795109E0,1.8759766E0,2.9170322E0,2.8017187E0,5.7940025E0,3.9053345E-1,0E0,0E0,0E0,0E0,0E0,4.145281E0,0E0,0E0,0E0,0E0,0E0],"parents":[2147483647,0,0,1,1,2,2,3,3,4,4,5,5,6,6,7,7,13,13],"right_children":[2,4,6,8,10,12,14,16,-1,-1,-1,-1,-1,18,-1,-1,-1,-1,-1],"split_conditions":[5.128E-2,1.683E1,2.0404999E1,4.1184998E0,1.868E1,8.1955E-2,7.1865E2,3.309E-3,6.904089E-4,1.3807557E-2,-1.5237714E-2,2.0740435E-2,-1.0064079E-2,2.5925E1,-2.7377661E-2,6.4905616E-3,2.699991E-2,1.8836452E-2,-1.7852534E-2],"split_indices":[7,20,21,12,1,7,23,14,0,0,0,0,0,21,0,0,0,0,0],"split_type":[0,0,0,0,0,0,0,0,0,0,0,0,0,0,0,0,0,0,0],"sum_hessian":[8.398799E1,5.1644646E1,3.2343346E1,4.808787E1,3.556776E0,3.2009146E0,2.914243E1,4.6893265E1,1.1946036E0,1.6447207E0,1.9120555E0,2.0392506E0,1.161664E0,2.9431622E0,2.6199268E1,1.1178817E0,4.5775387E1,1.5806488E0,1.3625133E0],"tree_param":{"num_deleted":"0","num_feature":"30","num_nodes":"19","size_leaf_vector":"0"}},{"base_weights":[3.3415294E-1,1.0924063E0,-1.2193291E0,1.2554523E0,-7.538265E-1,-1.2900499E0,2.251847E-1,1.2958975E0,8.604392E-3,2.6301783E-1,-1.1243352E0,-1.671734E-1,-1.3345859E0,1.3788341E0,7.50431E-1,-4.065973E-1,-1.3591766E0],"categories":[],"categories_nodes":[],"categories_segments":[],"categories_sizes":[],"default_left":[1,1,1,1,1,1,0,1,0,0,0,0,1,0,0,0,0],"id":29,"left_children":[1,3,5,7,9,11,-1,13,-1,-1,-1,-1,15,-1,-1,-1,-1],"loss_changes":[1.0044625E2,1.8125984E1,3.1581955E0,2.6522598E0,2.2758968E0,1.122612E0,0E0,1.2792206E0,0E0,0E0,0E0,0E0,3.4751892E-2,0E0,0E0,0E0,0E0],"parents":[2147483647,0,0,1,1,2,2,3,3,4,4,5,5,7,7,12,12],"right_children":[2,4,6,8,10,12,-1,14,-1,-1,-1,-1,16,-1,-1,-1,-1],"split_conditions":[1.4234999E-1,9.5745E2,1.0797501E-2,4.2190002E1,2.071E-1,1.85E1,4.503694E-3,2.1575E1,1.7208785E-4,5.2603567E-3,-2.2486703E-2,-3.3434678E-3,2.047E-2,2.7576681E-2,1.500862E-2,-8.1319455E-3,-2.7183533E-2],"split_indices":[27,23,19,13,26,13,0,1,0,0,0,0,16,0,0,0,0],"split_type":[0,0,0,0,0,0,0,0,0,0,0,0,0,0,0,0,0],"sum_hessian":[8.3142525E1,5.607108E1,2.7071445E1,5.1815132E1,4.255948E0,2.5909878E1,1.1615688E0,5.014906E1,1.666071E0,1.2140794E0,3.0418687E0,1.1697922E0,2.4740086E1,4.220422E1,7.944841E0,1.0913174E0,2.3648767E1],"tree_param":{"num_deleted":"0","num_feature":"30","num_nodes":"17","size_leaf_vector":"0"}},{"base_weights":[3.3063453E-1,1.1842184E0,-1.0265821E0,1.2794247E0,-8.687956E-2,4.8393413E-1,-1.2047971E0,1.3105738E0,2.8518477E-2,6.768891E-1,-7.496333E-1,1.0213442E0,-4.9533153E-1,7.91974E-2,-1.3479074E0,3.0967805E-1,1.3279926E0,9.2511934E-1,-8.775484E-1],"categories":[],"categories_nodes":[],"categories_segments":[],"categories_sizes":[],"default_left":[1,1,1,1,1,1,1,1,0,0,0,0,0,1,0,0,0,0,0],"id":30,"left_children":[1,3,5,7,9,11,13,15,-1,-1,-1,-1,-1,17,-1,-1,-1,-1,-1],"loss_changes":[9.774222E1,6.3574066E0,9.387238E0,1.8361282E0,2.801992E0,2.6977544E0,5.5349007E0,4.062729E-1,0E0,0E0,0E0,0E0,0E0,3.9737613E0,0E0,0E0,0E0,0E0,0E0],"parents":[2147483647,0,0,1,1,2,2,3,3,4,4,5,5,6,6,7,7,13,13],"right_children":[2,4,6,8,10,12,14,16,-1,-1,-1,-1,-1,18,-1,-1,-1,-1,-1],"split_conditions":[5.128E-2,1.683E1,2.0404999E1,4.1184998E0,1.868E1,1.7255001E1,7.1865E2,3.309E-3,5.7036954E-4,1.3537782E-2,-1.49926655E-2,2.0426882E-2,-9.90663E-3,2.5925E1,-2.6958147E-2,6.193561E-3,2.655985E-2,1.8502386E-2,-1.7550968E-2],"split_indices":[7,20,21,12,1,20,23,14,0,0,0,0,0,21,0,0,0,0,0],"split_type":[0,0,0,0,0,0,0,0,0,0,0,0,0,0,0,0,0,0,0],"sum_hessian":[8.232038E1,5.061496E1,3.1705418E1,4.708194E1,3.5330229E0,3.1648993E0,2.8540518E1,4.589148E1,1.190458E0,1.6315124E0,1.9015106E0,2.0157232E0,1.1491761E0,2.906831E0,2.5633688E1,1.1062053E0,4.4785275E1,1.5603124E0,1.3465186E0],"tree_param":{"num_deleted":"0","num_feature":"30","num_nodes":"19","size_leaf_vector":"0"}},{"base_weights":[3.27617E-1,1.0721586E0,-1.1985196E0,1.2333362E0,-7.365587E-1,-1.2693614E0,2.2616644E-1,1.3222408E0,5.12439E-1,2.6370054E-1,-1.1058751E0,-1.643328E-1,-1.3138418E0,4.2482147E-1,1.339663E0,1.0887975E0,-1.8500996E-1,-3.9683452E-1,-1.3384029E0],"categories":[],"categories_nodes":[],"categories_segments":[],"categories_sizes":[],"default_left":[1,1,1,1,1,1,0,1,1,0,0,0,1,0,0,0,0,0,0],"id":31,"left_children":[1,3,5,7,9,11,-1,13,15,-1,-1,-1,17,-1,-1,-1,-1,-1,-1],"loss_changes":[9.498769E1,1.7220123E1,3.0637894E0,2.6390762E0,2.2141123E0,1.0797424E0,0E0,1.4125061E-1,3.1415567E0,0E0,0E0,0E0,3.6380768E-2,0E0,0E0,0E0,0E0,0E0,0E0],"parents":[2147483647,0,0,1,1,2,2,3,3,4,4,5,5,7,7,8,8,12,12],"right_children":[2,4,6,8,10,12,-1,14,16,-1,-1,-1,18,-1,-1,-1,-1,-1,-1],"split_conditions":[1.4234999E-1,9.5745E2,1.08064994E-1,2.2455E1,2.071E-1,1.85E1,4.523329E-3,3.309E-3,1.443E1,5.274011E-3,-2.2117503E-2,-3.286656E-3,2.047E-2,8.496429E-3,2.679326E-2,2.1775948E-2,-3.700199E-3,-7.93669E-3,-2.6768057E-2],"split_indices":[27,23,16,1,26,13,0,14,20,0,0,0,16,0,0,0,0,0,0],"split_type":[0,0,0,0,0,0,0,0,0,0,0,0,0,0,0,0,0,0,0],"sum_hessian":[8.1465E1,5.4953053E1,2.6511948E1,5.0748856E1,4.2041945E0,2.535996E1,1.1519861E0,4.4434776E1,6.3140798E0,1.2108085E0,2.993386E0,1.1629617E0,2.4196999E1,1.3296245E0,4.3105152E1,3.1499267E0,3.1641533E0,1.0787334E0,2.3118265E1],"tree_param":{"num_deleted":"0","num_feature":"30","num_nodes":"19","size_leaf_vector":"0"}},{"base_weights":[3.2442904E-1,1.1631647E0,-1.0090176E0,1.2580625E0,-8.537084E-2,4.757571E-1,-1.1859206E0,1.2897354E0,1.7203504E-2,8.127494E-1,-6.253066E-1,1.0033582E0,-4.8402867E-1,7.698886E-2,-1.3279585E0,1.3069617E0,2.8713277E-1,-9.0355295E-1,-6.307055E-2,9.0915024E-1,-8.6302596E-1],"categories":[],"categories_nodes":[],"categories_segments":[],"categories_sizes":[],"default_left":[1,1,1,1,1,1,1,1,0,0,1,0,0,1,0,0,0,0,0,0,0],"id":32,"left_children":[1,3,5,7,9,11,13,15,-1,-1,17,-1,-1,19,-1,-1,-1,-1,-1,-1,-1],"loss_changes":[9.246835E1,6.09964E0,8.9837E0,1.827568E0,2.6947293E0,2.5751138E0,5.2914314E0,4.171219E-1,0E0,0E0,4.7196484E-1,0E0,0E0,3.8117564E0,0E0,0E0,0E0,0E0,0E0,0E0,0E0],"parents":[2147483647,0,0,1,1,2,2,3,3,4,4,5,5,6,6,7,7,10,10,13,13],"right_children":[2,4,6,8,10,12,14,16,-1,-1,18,-1,-1,20,-1,-1,-1,-1,-1,-1,-1],"split_conditions":[5.128E-2,1.683E1,2.0404999E1,4.1184998E0,1.619E1,1.7255001E1,7.1865E2,1.143E-1,3.4407008E-4,1.6254988E-2,8.8415E-3,2.0067165E-2,-9.680573E-3,2.5925E1,-2.6559168E-2,2.6139233E-2,5.742655E-3,-1.807106E-2,-1.261411E-3,1.8183004E-2,-1.726052E-2],"split_indices":[7,20,21,12,1,20,23,29,0,0,17,0,0,21,0,0,0,0,0,0,0],"split_type":[0,0,0,0,0,0,0,0,0,0,0,0,0,0,0,0,0,0,0,0,0],"sum_hessian":[8.0629074E1,4.9574497E1,3.1054575E1,4.6065548E1,3.508948E0,3.1262345E0,2.792834E1,4.488058E1,1.1849661E0,1.1277676E0,2.3811805E0,1.9880118E0,1.1382226E0,2.86981E0,2.505853E1,4.382405E1,1.0565299E0,1.186781E0,1.1943995E0,1.5396487E0,1.3301616E0],"tree_param":{"num_deleted":"0","num_feature":"30","num_nodes":"21","size_leaf_vector":"0"}},{"base_weights":[3.215406E-1,1.053122E0,-1.1786271E0,1.2125608E0,-7.1914786E-1,-1.2495167E0,2.2376148E-1,1.3213445E0,5.9649646E-1,2.6444575E-1,-1.0873929E0,-1.6156349E-1,-1.2939895E0,1.3382403E0,3.7125182E-1,-6.719932E-1,9.400016E-1,-3.858472E-1,-1.3186165E0],"categories":[],"categories_nodes":[],"categories_segments":[],"categories_sizes":[],"default_left":[1,1,1,1,1,1,0,1,1,0,0,0,1,0,0,0,0,0,0],"id":33,"left_children":[1,3,5,7,9,11,-1,13,15,-1,-1,-1,17,-1,-1,-1,-1,-1,-1],"loss_changes":[8.988294E1,1.6362244E1,2.9586143E0,2.6074066E0,2.1537664E0,1.0394096E0,0E0,1.8123627E-1,4.739294E0,0E0,0E0,0E0,4.244232E-2,0E0,0E0,0E0,0E0,0E0,0E0],"parents":[2147483647,0,0,1,1,2,2,3,3,4,4,5,5,7,7,8,8,12,12],"right_children":[2,4,6,8,10,12,-1,14,16,-1,-1,-1,18,-1,-1,-1,-1,-1,-1],"split_conditions":[1.4234999E-1,9.5745E2,1.08064994E-1,2.1575E1,2.071E-1,1.85E1,4.4752294E-3,4.054E1,1.4765E-2,5.288915E-3,-2.1747857E-2,-3.2312695E-3,9.204E-2,2.6764804E-2,7.4250363E-3,-1.3439864E-2,1.8800031E-2,-7.716944E-3,-2.637233E-2],"split_indices":[27,23,16,1,26,13,0,13,18,0,0,0,6,0,0,0,0,0,0],"split_type":[0,0,0,0,0,0,0,0,0,0,0,0,0,0,0,0,0,0,0],"sum_hessian":[7.97673E1,5.3819393E1,2.5947912E1,4.966701E1,4.1523805E0,2.4803143E1,1.1447703E0,4.1240086E1,8.426925E0,1.2079052E0,2.9444754E0,1.1560152E0,2.3647127E1,4.011812E1,1.1219709E0,1.5919433E0,6.8349814E0,1.0643897E0,2.2582737E1],"tree_param":{"num_deleted":"0","num_feature":"30","num_nodes":"19","size_leaf_vector":"0"}},{"base_weights":[3.1835678E-1,1.14312E0,-9.924194E-1,1.2377802E0,-8.423733E-2,4.6869227E-1,-1.1683183E0,1.2697917E0,1.1521433E-2,6.559831E-1,-7.245108E-1,9.8855865E-1,-4.7674507E-1,7.475597E-2,-1.3093998E0,2.818801E-1,1.2877961E0,8.936765E-1,-8.490239E-1],"categories":[],"categories_nodes":[],"categories_segments":[],"categories_sizes":[],"default_left":[1,1,1,1,1,1,1,1,0,0,0,0,0,1,0,0,0,0,0],"id":34,"left_children":[1,3,5,7,9,11,13,15,-1,-1,-1,-1,-1,17,-1,-1,-1,-1,-1],"loss_changes":[8.75376E1,5.8576813E0,8.6181965E0,1.7925873E0,2.599531E0,2.480497E0,5.063507E0,4.3489075E-1,0E0,0E0,0E0,0E0,0E0,3.6576376E0,0E0,0E0,0E0,0E0,0E0],"parents":[2147483647,0,0,1,1,2,2,3,3,4,4,5,5,6,6,7,7,13,13],"right_children":[2,4,6,8,10,12,14,16,-1,-1,-1,-1,-1,18,-1,-1,-1,-1,-1],"split_conditions":[5.128E-2,1.683E1,2.0404999E1,4.1184998E0,1.868E1,8.1955E-2,7.1865E2,3.309E-3,2.3042865E-4,1.3119661E-2,-1.4490215E-2,1.9771172E-2,-9.534901E-3,2.5925E1,-2.6187995E-2,5.637602E-3,2.5755921E-2,1.787353E-2,-1.6980477E-2],"split_indices":[7,20,21,12,1,7,23,14,0,0,0,0,0,21,0,0,0,0,0],"split_type":[0,0,0,0,0,0,0,0,0,0,0,0,0,0,0,0,0,0,0],"sum_hessian":[7.892298E1,4.852077E1,3.040221E1,4.5038666E1,3.4821043E0,3.0878978E0,2.7314314E1,4.3858246E1,1.1804206E0,1.6036214E0,1.878483E0,1.9629326E0,1.1249651E0,2.8319585E0,2.4482355E1,1.083122E0,4.2775124E1,1.5184535E0,1.313505E0],"tree_param":{"num_deleted":"0","num_feature":"30","num_nodes":"19","size_leaf_vector":"0"}},{"base_weights":[3.1563306E-1,1.034964E0,-1.1599585E0,1.1928548E0,-7.030581E-1,-1.2310996E0,2.2468305E-1,1.302681E0,5.7709503E-1,2.650229E-1,-1.0704875E0,-1.5886992E-1,-1.2756314E0,1.3197626E0,3.6175644E-1,-6.652387E-1,9.1855884E-1,-3.7281957E-1,-1.3002642E0],"categories":[],"categories_nodes":[],"categories_segments":[],"categories_sizes":[],"default_left":[1,1,1,1,1,1,0,1,1,0,0,0,1,0,0,0,0,0,0],"id":35,"left_children":[1,3,5,7,9,11,-1,13,15,-1,-1,-1,17,-1,-1,-1,-1,-1,-1],"loss_changes":[8.5115295E1,1.55685425E1,2.875229E0,2.600998E0,2.0975547E0,1.0027885E0,0E0,1.8600464E-1,4.556027E0,0E0,0E0,0E0,5.1120758E-2,0E0,0E0,0E0,0E0,0E0,0E0],"parents":[2147483647,0,0,1,1,2,2,3,3,4,4,5,5,7,7,8,8,12,12],"right_children":[2,4,6,8,10,12,-1,14,16,-1,-1,-1,18,-1,-1,-1,-1,-1,-1],"split_conditions":[1.4234999E-1,9.5745E2,1.0797501E-2,2.1575E1,2.071E-1,1.85E1,4.4936608E-3,4.054E1,1.4765E-2,5.300458E-3,-2.140975E-2,-3.1773984E-3,2.575E-1,2.6395252E-2,7.235129E-3,-1.3304774E-2,1.8371176E-2,-7.456391E-3,-2.6005285E-2],"split_indices":[27,23,19,1,26,13,0,13,18,0,0,0,26,0,0,0,0,0,0],"split_type":[0,0,0,0,0,0,0,0,0,0,0,0,0,0,0,0,0,0,0],"sum_hessian":[7.8057594E1,5.267692E1,2.5380674E1,4.857756E1,4.099364E0,2.4245844E1,1.1348302E0,4.027804E1,8.299516E0,1.2045083E0,2.8948557E0,1.1489606E0,2.3096884E1,3.916443E1,1.1136149E0,1.584931E0,6.7145853E0,1.0419941E0,2.205489E1],"tree_param":{"num_deleted":"0","num_feature":"30","num_nodes":"19","size_leaf_vector":"0"}},{"base_weights":[3.125875E-1,1.1240815E0,-9.7666335E-1,1.2185452E0,-8.277502E-2,4.6074802E-1,-1.1516013E0,1.2509332E0,6.0322266E-3,6.436695E-1,-7.104242E-1,9.727285E-1,-4.677951E-1,7.2586395E-2,-1.2918403E0,1.26867E0,2.5548926E-1,8.7875074E-1,-8.355068E-1],"categories":[],"categories_nodes":[],"categories_segments":[],"categories_sizes":[],"default_left":[1,1,1,1,1,1,1,1,0,0,0,0,0,1,0,0,0,0,0],"id":36,"left_children":[1,3,5,7,9,11,13,15,-1,-1,-1,-1,-1,17,-1,-1,-1,-1,-1],"loss_changes":[8.2923546E1,5.6259346E0,8.262186E0,1.7600021E0,2.4882762E0,2.3805132E0,4.848728E0,4.4978333E-1,0E0,0E0,0E0,0E0,0E0,3.5113504E0,0E0,0E0,0E0,0E0,0E0],"parents":[2147483647,0,0,1,1,2,2,3,3,4,4,5,5,6,6,7,7,13,13],"right_children":[2,4,6,8,10,12,14,16,-1,-1,-1,-1,-1,18,-1,-1,-1,-1,-1],"split_conditions":[5.128E-2,1.683E1,2.0404999E1,4.1184998E0,1.868E1,8.1955E-2,7.1865E2,1.6749999E-1,1.2064453E-4,1.287339E-2,-1.42084835E-2,1.9454569E-2,-9.355902E-3,2.5925E1,-2.5836805E-2,2.53734E-2,5.109785E-3,1.7575014E-2,-1.6710136E-2],"split_indices":[7,20,21,12,1,7,23,24,0,0,0,0,0,21,0,0,0,0,0],"split_type":[0,0,0,0,0,0,0,0,0,0,0,0,0,0,0,0,0,0,0],"sum_hessian":[7.721084E1,4.7463787E1,2.9747051E1,4.400938E1,3.4544084E0,3.050256E0,2.6696795E1,4.2833546E1,1.1758337E0,1.5893555E0,1.8650529E0,1.935483E0,1.114773E0,2.793543E0,2.3903252E1,4.1814034E1,1.0195148E0,1.4969395E0,1.2966037E0],"tree_param":{"num_deleted":"0","num_feature":"30","num_nodes":"19","size_leaf_vector":"0"}},{"base_weights":[3.0998915E-1,1.017563E0,-1.1420119E0,1.1740236E0,-6.8750614E-1,-1.2133281E0,2.2234195E-1,1.2849973E0,5.582377E-1,2.6555565E-1,-1.0542839E0,-1.5624365E-1,-1.257958E0,1.3022914E0,3.5253623E-1,-6.607281E-1,8.981873E-1,-3.632891E-1,-1.2829112E0],"categories":[],"categories_nodes":[],"categories_segments":[],"categories_sizes":[],"default_left":[1,1,1,1,1,1,0,1,1,0,0,0,1,0,0,0,0,0,0],"id":37,"left_children":[1,3,5,7,9,11,-1,13,15,-1,-1,-1,17,-1,-1,-1,-1,-1,-1],"loss_changes":[8.062569E1,1.4821384E1,2.7813644E0,2.595993E0,2.0438418E0,9.680519E-1,0E0,1.9100189E-1,4.394109E0,0E0,0E0,0E0,5.953598E-2,0E0,0E0,0E0,0E0,0E0,0E0],"parents":[2147483647,0,0,1,1,2,2,3,3,4,4,5,5,7,7,8,8,12,12],"right_children":[2,4,6,8,10,12,-1,14,16,-1,-1,-1,18,-1,-1,-1,-1,-1,-1],"split_conditions":[1.4234999E-1,9.5745E2,1.0797501E-2,2.1575E1,2.071E-1,1.85E1,4.446839E-3,4.054E1,1.4765E-2,5.311113E-3,-2.1085676E-2,-3.124873E-3,9.204E-2,2.6045827E-2,7.0507247E-3,-1.3214562E-2,1.7963745E-2,-7.2657815E-3,-2.5658224E-2],"split_indices":[27,23,19,1,26,13,0,13,18,0,0,0,6,0,0,0,0,0,0],"split_type":[0,0,0,0,0,0,0,0,0,0,0,0,0,0,0,0,0,0,0],"sum_hessian":[7.6344536E1,5.15318E1,2.4812735E1,4.748585E1,4.045947E0,2.368537E1,1.1273649E0,3.931411E1,8.171743E0,1.2010438E0,2.8449032E0,1.1418126E0,2.2543556E1,3.8208843E1,1.1052651E0,1.5762258E0,6.5955176E0,1.0338751E0,2.1509682E1],"tree_param":{"num_deleted":"0","num_feature":"30","num_nodes":"19","size_leaf_vector":"0"}},{"base_weights":[3.070673E-1,1.1059225E0,-9.616828E-1,1.2002612E0,-8.134764E-2,4.542802E-1,-1.1358794E0,1.2330617E0,7.3281E-4,6.317198E-1,-6.9674635E-1,9.5900613E-1,-4.6096602E-1,7.04836E-2,-1.2753873E0,1.2701681E0,5.176726E-1,8.6434525E-1,-8.224442E-1],"categories":[],"categories_nodes":[],"categories_segments":[],"categories_sizes":[],"default_left":[1,1,1,1,1,1,1,1,0,0,0,0,0,1,0,0,0,0,0],"id":38,"left_children":[1,3,5,7,9,11,13,15,-1,-1,-1,-1,-1,17,-1,-1,-1,-1,-1],"loss_changes":[7.859793E1,5.407463E0,7.9381847E0,1.7295151E0,2.3824232E0,2.2948098E0,4.6474648E0,4.7886658E-1,0E0,0E0,0E0,0E0,0E0,3.3724322E0,0E0,0E0,0E0,0E0,0E0],"parents":[2147483647,0,0,1,1,2,2,3,3,4,4,5,5,6,6,7,7,13,13],"right_children":[2,4,6,8,10,12,14,16,-1,-1,-1,-1,-1,18,-1,-1,-1,-1,-1],"split_conditions":[5.128E-2,1.683E1,2.0404999E1,4.1184998E0,1.868E1,1.7255001E1,7.1865E2,3.335E1,1.46562E-5,1.2634397E-2,-1.3934927E-2,1.9180123E-2,-9.2193205E-3,2.5925E1,-2.5507744E-2,2.540336E-2,1.0353452E-2,1.7286904E-2,-1.6448883E-2],"split_indices":[7,20,21,12,1,20,23,21,0,0,0,0,0,21,0,0,0,0,0],"split_type":[0,0,0,0,0,0,0,0,0,0,0,0,0,0,0,0,0,0,0],"sum_hessian":[7.549802E1,4.64068E1,2.9091217E1,4.298068E1,3.4261227E0,3.0107083E0,2.608051E1,4.1809464E1,1.1712127E0,1.5748315E0,1.8512911E0,1.9097413E0,1.1009669E0,2.7546937E0,2.3325815E1,3.901054E1,2.7989247E0,1.4751842E0,1.2795094E0],"tree_param":{"num_deleted":"0","num_feature":"30","num_nodes":"19","size_leaf_vector":"0"}},{"base_weights":[3.0465496E-1,1.0968689E0,-9.536819E-1,1.1911943E0,-8.022219E-2,4.4949728E-1,-1.1275022E0,1.2241799E0,-3.0958706E-3,7.667355E-1,-5.851576E-1,9.509737E-1,-4.5660865E-1,6.963048E-2,-1.2667859E0,2.390507E-1,1.2433293E0,-8.67728E-1,-3.4881864E-2,8.574878E-1,-8.160443E-1],"categories":[],"categories_nodes":[],"categories_segments":[],"categories_sizes":[],"default_left":[1,1,1,1,1,1,1,1,0,0,1,0,0,1,0,0,0,0,0,0,0],"id":39,"left_children":[1,3,5,7,9,11,13,15,-1,-1,17,-1,-1,19,-1,-1,-1,-1,-1,-1,-1],"loss_changes":[7.644501E1,5.30056E0,7.764349E0,1.7160492E0,2.3367114E0,2.2494E0,4.5504227E0,5.0073624E-1,0E0,0E0,4.8799348E-1,0E0,0E0,3.3073807E0,0E0,0E0,0E0,0E0,0E0,0E0,0E0],"parents":[2147483647,0,0,1,1,2,2,3,3,4,4,5,5,6,6,7,7,10,10,13,13],"right_children":[2,4,6,8,10,12,14,16,-1,-1,18,-1,-1,20,-1,-1,-1,-1,-1,-1,-1],"split_conditions":[5.128E-2,1.683E1,2.0404999E1,4.31E1,1.619E1,1.7255001E1,7.1865E2,3.309E-3,-6.191741E-5,1.533471E-2,8.8415E-3,1.9019473E-2,-9.132173E-3,2.5925E1,-2.5335716E-2,4.781014E-3,2.4866585E-2,-1.735456E-2,-6.9763727E-4,1.7149756E-2,-1.6320884E-2],"split_indices":[7,20,21,13,1,20,23,14,0,0,17,0,0,21,0,0,0,0,0,0,0],"split_type":[0,0,0,0,0,0,0,0,0,0,0,0,0,0,0,0,0,0,0,0,0],"sum_hessian":[7.463554E1,4.5879433E1,2.8756098E1,4.2464584E1,3.414851E0,2.9947486E0,2.576135E1,4.1298904E1,1.1656778E0,1.0818008E0,2.3330503E0,1.89594E0,1.0988086E0,2.7370126E0,2.3024338E1,1.0445821E0,4.0254322E1,1.1603208E0,1.1727295E0,1.4653379E0,1.2716748E0],"tree_param":{"num_deleted":"0","num_feature":"30","num_nodes":"21","size_leaf_vector":"0"}},{"base_weights":[3.0220678E-1,9.934983E-1,-1.1176643E0,1.1478999E0,-6.6404516E-1,-1.1894221E0,2.2322793E-1,1.2605532E0,5.32175E-1,2.6946953E-1,-1.0312533E0,-1.5284382E-1,-1.2341373E0,1.2781866E0,3.3996436E-1,-6.5747464E-1,8.7117547E-1,-3.4827703E-1,-1.2592461E0],"categories":[],"categories_nodes":[],"categories_segments":[],"categories_sizes":[],"default_left":[1,1,1,1,1,1,0,1,1,0,0,0,1,0,0,0,0,0,0],"id":40,"left_children":[1,3,5,7,9,11,-1,13,15,-1,-1,-1,17,-1,-1,-1,-1,-1,-1],"loss_changes":[7.450337E1,1.3768024E1,2.6666412E0,2.5791435E0,1.9794884E0,9.166031E-1,0E0,1.9655228E-1,4.193237E0,0E0,0E0,0E0,6.674194E-2,0E0,0E0,0E0,0E0,0E0,0E0],"parents":[2147483647,0,0,1,1,2,2,3,3,4,4,5,5,7,7,8,8,12,12],"right_children":[2,4,6,8,10,12,-1,14,16,-1,-1,-1,18,-1,-1,-1,-1,-1,-1],"split_conditions":[1.4234999E-1,9.5745E2,1.08064994E-1,2.1575E1,2.071E-1,1.85E1,4.464559E-3,4.054E1,1.4765E-2,5.3893905E-3,-2.0625066E-2,-3.0568764E-3,2.047E-2,2.556373E-2,6.799287E-3,-1.3149492E-2,1.7423509E-2,-6.9655403E-3,-2.5184922E-2],"split_indices":[27,23,16,1,26,13,0,13,18,0,0,0,16,0,0,0,0,0,0],"split_type":[0,0,0,0,0,0,0,0,0,0,0,0,0,0,0,0,0,0,0],"sum_hessian":[7.377291E1,4.9818233E1,2.3954676E1,4.5854336E1,3.9639006E0,2.2845083E1,1.1095922E0,3.787706E1,7.9772744E0,1.1941941E0,2.7697065E0,1.1274283E0,2.1717655E1,3.6784042E1,1.0930177E0,1.5607402E0,6.4165344E0,1.008476E0,2.0709179E1],"tree_param":{"num_deleted":"0","num_feature":"30","num_nodes":"19","size_leaf_vector":"0"}},{"base_weights":[2.994496E-1,1.0798378E0,-9.397377E-1,1.1741705E0,-7.917187E-2,4.4341388E-1,-1.112988E0,1.2077166E0,-9.181427E-3,6.170637E-1,-6.787792E-1,9.3796E-1,-4.5009032E-1,6.7609385E-2,-1.2516872E0,1.2458642E0,4.912926E-1,8.437618E-1,-8.0358684E-1],"categories":[],"categories_nodes":[],"categories_segments":[],"categories_sizes":[],"default_left":[1,1,1,1,1,1,1,1,0,0,0,0,0,1,0,0,0,0,0],"id":41,"left_children":[1,3,5,7,9,11,13,15,-1,-1,-1,-1,-1,17,-1,-1,-1,-1,-1],"loss_changes":[7.250963E1,5.103512E0,7.4673996E0,1.695919E0,2.2499118E0,2.1696405E0,4.366291E0,5.160942E-1,0E0,0E0,0E0,0E0,0E0,3.17836E0,0E0,0E0,0E0,0E0,0E0],"parents":[2147483647,0,0,1,1,2,2,3,3,4,4,5,5,6,6,7,7,13,13],"right_children":[2,4,6,8,10,12,14,16,-1,-1,-1,-1,-1,18,-1,-1,-1,-1,-1],"split_conditions":[5.128E-2,1.683E1,2.0404999E1,4.1184998E0,1.868E1,8.1955E-2,7.1865E2,3.335E1,-1.8362854E-4,1.2341274E-2,-1.3575584E-2,1.87592E-2,-9.001806E-3,2.5925E1,-2.5033742E-2,2.4917282E-2,9.825852E-3,1.6875235E-2,-1.6071737E-2],"split_indices":[7,20,21,12,1,7,23,21,0,0,0,0,0,21,0,0,0,0,0],"split_type":[0,0,0,0,0,0,0,0,0,0,0,0,0,0,0,0,0,0,0],"sum_hessian":[7.2931114E1,4.482856E1,2.8102554E1,4.1442444E1,3.386114E0,2.9546425E0,2.5147911E1,4.0279984E1,1.1624619E0,1.5533382E0,1.8327756E0,1.8699104E0,1.0847322E0,2.6977139E0,2.2450197E1,3.7541977E1,2.7380056E0,1.443333E0,1.254381E0],"tree_param":{"num_deleted":"0","num_feature":"30","num_nodes":"19","size_leaf_vector":"0"}},{"base_weights":[2.971928E-1,9.780042E-1,-1.1017865E0,1.1312404E0,-6.49691E-1,-1.1738536E0,2.2096059E-1,1.2450162E0,5.1694095E-1,2.3864613E-1,-1.037274E0,-1.5043077E-1,-1.2187707E0,1.2675817E0,4.0145117E-1,-6.517484E-1,8.5435236E-1],"categories":[],"categories_nodes":[],"categories_segments":[],"categories_sizes":[],"default_left":[1,1,1,1,1,1,0,1,1,0,0,0,0,0,0,0,0],"id":42,"left_children":[1,3,5,7,9,11,-1,13,15,-1,-1,-1,-1,-1,-1,-1,-1],"loss_changes":[7.067726E1,1.3127232E1,2.5844955E0,2.5556488E0,1.9381249E0,8.87249E-1,0E0,2.1278E-1,4.0517845E0,0E0,0E0,0E0,0E0,0E0,0E0,0E0,0E0],"parents":[2147483647,0,0,1,1,2,2,3,3,4,4,5,5,7,7,8,8],"right_children":[2,4,6,8,10,12,-1,14,16,-1,-1,-1,-1,-1,-1,-1,-1],"split_conditions":[1.4234999E-1,9.5745E2,1.08064994E-1,2.1575E1,6.492E-2,1.85E1,4.4192118E-3,2.092E0,1.4765E-2,4.7729225E-3,-2.074548E-2,-3.0086152E-3,-2.4375414E-2,2.5351634E-2,8.029023E-3,-1.3034968E-2,1.7087046E-2],"split_indices":[27,23,16,1,29,13,0,11,18,0,0,0,0,0,0,0,0],"split_type":[0,0,0,0,0,0,0,0,0,0,0,0,0,0,0,0,0],"sum_hessian":[7.207509E1,4.8684E1,2.3391087E1,4.4773857E1,3.9101431E0,2.2289267E1,1.1018208E0,3.6910797E1,7.863058E0,1.3045033E0,2.6056397E0,1.1199777E0,2.1169289E1,3.54596E1,1.4511973E0,1.5528499E0,6.3102083E0],"tree_param":{"num_deleted":"0","num_feature":"30","num_nodes":"17","size_leaf_vector":"0"}},{"base_weights":[2.946102E-1,1.0638597E0,-9.266801E-1,1.158024E0,-7.618955E-2,4.365821E-1,-1.0992404E0,1.192164E0,-1.6313577E-2,4.5860022E-1,-8.4118634E-1,9.230341E-1,-4.4058692E-1,6.551124E-2,-1.2374147E0,2.0962693E-1,1.2122474E0,-2.1091422E-1,8.958783E-1,8.304553E-1,-7.916297E-1],"categories":[],"categories_nodes":[],"categories_segments":[],"categories_sizes":[],"default_left":[1,1,1,1,1,1,1,1,0,1,0,0,0,1,0,0,0,0,0,0,0],"id":43,"left_children":[1,3,5,7,9,11,13,15,-1,17,-1,-1,-1,19,-1,-1,-1,-1,-1,-1,-1],"loss_changes":[6.8859726E1,4.8967476E0,7.173641E0,1.6807137E0,2.1677327E0,2.0762591E0,4.191683E0,5.407028E-1,0E0,1.128941E0,0E0,0E0,0E0,3.0560827E0,0E0,0E0,0E0,0E0,0E0,0E0,0E0],"parents":[2147483647,0,0,1,1,2,2,3,3,4,4,5,5,6,6,7,7,9,9,13,13],"right_children":[2,4,6,8,10,12,14,16,-1,18,-1,-1,-1,20,-1,-1,-1,-1,-1,-1,-1],"split_conditions":[5.128E-2,1.683E1,2.0404999E1,4.1184998E0,1.9544998E1,8.1955E-2,7.1865E2,3.309E-3,-3.2627155E-4,1.5875E1,-1.6823726E-2,1.8460682E-2,-8.811738E-3,2.5925E1,-2.4748294E-2,4.1925386E-3,2.4244947E-2,-4.2182845E-3,1.7917566E-2,1.6609106E-2,-1.5832594E-2],"split_indices":[7,20,21,12,1,7,23,14,0,0,0,0,0,21,0,0,0,0,0,0,0],"split_type":[0,0,0,0,0,0,0,0,0,0,0,0,0,0,0,0,0,0,0,0,0],"sum_hessian":[7.124644E1,4.379215E1,2.7454292E1,4.0436466E1,3.355684E0,2.9127717E0,2.454152E1,3.927937E1,1.1570964E0,2.2107353E0,1.1449487E0,1.8400478E0,1.0727237E0,2.6583774E0,2.1883142E1,1.0159128E0,3.8263454E1,1.0779527E0,1.1327827E0,1.4211893E0,1.2371882E0],"tree_param":{"num_deleted":"0","num_feature":"30","num_nodes":"21","size_leaf_vector":"0"}},{"base_weights":[2.9233965E-1,9.629018E-1,-1.0864333E0,1.1153084E0,-6.371402E-1,-1.1589606E0,2.2167148E-1,1.2305162E0,5.0000536E-1,2.6910967E-1,-1.0028824E0,-1.4803563E-1,-1.2041163E0,1.2489754E0,3.1622118E-1,-6.449378E-1,8.3569527E-1],"categories":[],"categories_nodes":[],"categories_segments":[],"categories_sizes":[],"default_left":[1,1,1,1,1,1,0,1,1,0,0,0,0,0,0,0,0],"id":44,"left_children":[1,3,5,7,9,11,-1,13,15,-1,-1,-1,-1,-1,-1,-1,-1],"loss_changes":[6.7056274E1,1.2553577E1,2.517891E0,2.5537872E0,1.8807635E0,8.598175E-1,0E0,2.290039E-1,3.8961773E0,0E0,0E0,0E0,0E0,0E0,0E0,0E0,0E0],"parents":[2147483647,0,0,1,1,2,2,3,3,4,4,5,5,7,7,8,8],"right_children":[2,4,6,8,10,12,-1,14,16,-1,-1,-1,-1,-1,-1,-1,-1],"split_conditions":[1.4234999E-1,9.5745E2,1.0797501E-2,2.1575E1,2.071E-1,1.85E1,4.4334293E-3,4.054E1,1.4765E-2,5.3821933E-3,-2.0057647E-2,-2.9607126E-3,-2.4082327E-2,2.4979508E-2,6.3244235E-3,-1.2898756E-2,1.6713904E-2],"split_indices":[27,23,19,1,26,13,0,13,18,0,0,0,0,0,0,0,0],"split_type":[0,0,0,0,0,0,0,0,0,0,0,0,0,0,0,0,0],"sum_hessian":[7.039682E1,4.7565235E1,2.2831587E1,4.3705196E1,3.8600388E0,2.1740225E1,1.0913619E0,3.597034E1,7.7348557E0,1.1858654E0,2.6741734E0,1.1124983E0,2.0627728E1,3.4899677E1,1.0706614E0,1.5447886E0,6.190067E0],"tree_param":{"num_deleted":"0","num_feature":"30","num_nodes":"17","size_leaf_vector":"0"}},{"base_weights":[2.8986958E-1,1.0481739E0,-9.138499E-1,1.1424998E0,-7.532237E-2,4.3085554E-1,-1.0860217E0,1.1771727E0,-2.3451343E-2,4.5287788E-1,-8.2988524E-1,9.108807E-1,-4.3462875E-1,6.3483186E-2,-1.2237662E0,1.2166916E0,4.600067E-1,8.850244E-1,-2.1048969E-1,8.175754E-1,-7.800352E-1],"categories":[],"categories_nodes":[],"categories_segments":[],"categories_sizes":[],"default_left":[1,1,1,1,1,1,1,1,0,1,0,0,0,1,0,0,0,0,0,0,0],"id":45,"left_children":[1,3,5,7,9,11,13,15,-1,17,-1,-1,-1,19,-1,-1,-1,-1,-1,-1,-1],"loss_changes":[6.5371254E1,4.7234955E0,6.9060535E0,1.6621552E0,2.1006258E0,2.0046544E0,4.0259686E0,5.536957E-1,0E0,1.101505E0,0E0,0E0,0E0,2.9397397E0,0E0,0E0,0E0,0E0,0E0,0E0,0E0],"parents":[2147483647,0,0,1,1,2,2,3,3,4,4,5,5,6,6,7,7,9,9,13,13],"right_children":[2,4,6,8,10,12,14,16,-1,18,-1,-1,-1,20,-1,-1,-1,-1,-1,-1,-1],"split_conditions":[5.128E-2,1.683E1,2.0404999E1,4.31E1,1.9544998E1,1.7255001E1,7.1865E2,3.3269997E1,-4.6902685E-4,2.2055E-1,-1.6597705E-2,1.8217614E-2,-8.692575E-3,2.5925E1,-2.4475323E-2,2.433383E-2,9.200134E-3,1.7700488E-2,-4.2097936E-3,1.6351508E-2,-1.5600704E-2],"split_indices":[7,20,21,13,1,20,23,21,0,26,0,0,0,21,0,0,0,0,0,0,0],"split_type":[0,0,0,0,0,0,0,0,0,0,0,0,0,0,0,0,0,0,0,0,0],"sum_hessian":[6.956791E1,4.2759823E1,2.6808084E1,3.9432274E1,3.3275487E0,2.8722897E0,2.3935795E1,3.828416E1,1.1481148E0,2.192556E0,1.1349928E0,1.8138299E0,1.0584599E0,2.6189847E0,2.131681E1,3.5624565E1,2.659596E0,1.1253288E0,1.067227E0,1.3990297E0,1.219955E0],"tree_param":{"num_deleted":"0","num_feature":"30","num_nodes":"21","size_leaf_vector":"0"}},{"base_weights":[2.877563E-1,9.485163E-1,-1.07155E0,1.1000991E0,-6.252199E-1,-1.1444632E0,2.1947157E-1,1.2164971E0,4.863324E-1,2.3981568E-1,-1.0091295E0,-1.4574338E-1,-1.1898791E0,1.2399893E0,3.692313E-1,-6.389362E-1,8.203945E-1],"categories":[],"categories_nodes":[],"categories_segments":[],"categories_sizes":[],"default_left":[1,1,1,1,1,1,0,1,1,0,0,0,0,0,0,0,0],"id":46,"left_children":[1,3,5,7,9,11,-1,13,15,-1,-1,-1,-1,-1,-1,-1,-1],"loss_changes":[6.364444E1,1.2007217E1,2.4423428E0,2.5263596E0,1.8382318E0,8.3325577E-1,0E0,2.5912094E-1,3.7658398E0,0E0,0E0,0E0,0E0,0E0,0E0,0E0,0E0],"parents":[2147483647,0,0,1,1,2,2,3,3,4,4,5,5,7,7,8,8],"right_children":[2,4,6,8,10,12,-1,14,16,-1,-1,-1,-1,-1,-1,-1,-1],"split_conditions":[1.4234999E-1,9.5745E2,1.0797501E-2,2.1575E1,6.492E-2,1.85E1,4.3894313E-3,2.092E0,1.4765E-2,4.7963136E-3,-2.0182591E-2,-2.9148676E-3,-2.3797581E-2,2.4799785E-2,7.384626E-3,-1.2778725E-2,1.640789E-2],"split_indices":[27,23,19,1,29,13,0,11,18,0,0,0,0,0,0,0,0],"split_type":[0,0,0,0,0,0,0,0,0,0,0,0,0,0,0,0,0],"sum_hessian":[6.87281E1,4.6450623E1,2.2277481E1,4.2644093E1,3.806529E0,2.1194025E1,1.0834556E0,3.5020584E1,7.623509E0,1.2854502E0,2.5210786E0,1.1049371E0,2.0089088E1,3.362475E1,1.3958336E0,1.5362188E0,6.0872903E0],"tree_param":{"num_deleted":"0","num_feature":"30","num_nodes":"17","size_leaf_vector":"0"}},{"base_weights":[2.8534186E-1,1.0333449E0,-9.019055E-1,1.1276748E0,-7.289845E-2,4.2449597E-1,-1.0735607E0,1.163125E0,-3.239378E-2,4.475008E-1,-8.163559E-1,8.9687485E-1,-4.2561996E-1,6.1483223E-2,-1.210933E0,1.2031752E0,4.4913954E-1,8.733508E-1,-2.0765276E-1,8.0506325E-1,-7.687839E-1],"categories":[],"categories_nodes":[],"categories_segments":[],"categories_sizes":[],"default_left":[1,1,1,1,1,1,1,1,0,1,0,0,0,1,0,0,0,0,0,0,0],"id":47,"left_children":[1,3,5,7,9,11,13,15,-1,17,-1,-1,-1,19,-1,-1,-1,-1,-1,-1,-1],"loss_changes":[6.2133106E1,4.542671E0,6.64205E0,1.6599121E0,2.0280957E0,1.9197664E0,3.8697414E0,5.549164E-1,0E0,1.0669054E0,0E0,0E0,0E0,2.8288224E0,0E0,0E0,0E0,0E0,0E0,0E0,0E0],"parents":[2147483647,0,0,1,1,2,2,3,3,4,4,5,5,6,6,7,7,9,9,13,13],"right_children":[2,4,6,8,10,12,14,16,-1,18,-1,-1,-1,20,-1,-1,-1,-1,-1,-1,-1],"split_conditions":[5.128E-2,1.683E1,2.0404999E1,4.1184998E0,1.9544998E1,1.7255001E1,7.1865E2,3.335E1,-6.478756E-4,2.2055E-1,-1.6327117E-2,1.7937496E-2,-8.512399E-3,2.5925E1,-2.4218658E-2,2.4063503E-2,8.982791E-3,1.7467016E-2,-4.153055E-3,1.6101265E-2,-1.5375678E-2],"split_indices":[7,20,21,12,1,20,23,21,0,26,0,0,0,21,0,0,0,0,0,0,0],"split_type":[0,0,0,0,0,0,0,0,0,0,0,0,0,0,0,0,0,0,0,0,0],"sum_hessian":[6.791518E1,4.1744476E1,2.6170698E1,3.844673E1,3.297748E0,2.8299987E0,2.33407E1,3.730413E1,1.1425986E0,2.1740534E0,1.1236947E0,1.7838013E0,1.0461973E0,2.5795434E0,2.0761156E1,3.467398E1,2.6301508E0,1.1157609E0,1.0582924E0,1.3768262E0,1.2027171E0],"tree_param":{"num_deleted":"0","num_feature":"30","num_nodes":"21","size_leaf_vector":"0"}},{"base_weights":[2.8330725E-1,1.0256402E0,-8.952041E-1,1.120156E0,-7.232018E-2,4.2027703E-1,-1.0667126E0,1.1558083E0,-3.3641797E-2,4.434522E-1,-8.098698E-1,8.912413E-1,-4.2492867E-1,6.076418E-2,-1.204065E0,1.1961651E0,4.4399956E-1,-2.0778278E-1,8.673229E-1,7.990989E-1,-7.631622E-1],"categories":[],"categories_nodes":[],"categories_segments":[],"categories_sizes":[],"default_left":[1,1,1,1,1,1,1,1,0,1,0,0,0,1,0,0,0,0,0,0,0],"id":48,"left_children":[1,3,5,7,9,11,13,15,-1,17,-1,-1,-1,19,-1,-1,-1,-1,-1,-1,-1],"loss_changes":[6.048195E1,4.4643097E0,6.5052357E0,1.6411781E0,1.9900197E0,1.8968332E0,3.7948494E0,5.550995E-1,0E0,1.0550077E0,0E0,0E0,0E0,2.7765524E0,0E0,0E0,0E0,0E0,0E0,0E0,0E0],"parents":[2147483647,0,0,1,1,2,2,3,3,4,4,5,5,6,6,7,7,9,9,13,13],"right_children":[2,4,6,8,10,12,14,16,-1,18,-1,-1,-1,20,-1,-1,-1,-1,-1,-1,-1],"split_conditions":[5.128E-2,1.683E1,2.0404999E1,4.31E1,1.9544998E1,8.1955E-2,7.1865E2,3.3269997E1,-6.728359E-4,1.5875E1,-1.6197396E-2,1.7824827E-2,-8.498573E-3,2.5925E1,-2.40813E-2,2.3923302E-2,8.879991E-3,-4.1556554E-3,1.7346459E-2,1.5981978E-2,-1.5263244E-2],"split_indices":[7,20,21,13,1,7,23,21,0,0,0,0,0,21,0,0,0,0,0,0,0],"split_type":[0,0,0,0,0,0,0,0,0,0,0,0,0,0,0,0,0,0,0,0,0],"sum_hessian":[6.708475E1,4.123864E1,2.5846106E1,3.7951447E1,3.2871923E0,2.813779E0,2.3032328E1,3.6812206E1,1.1392388E0,2.1690874E0,1.1181049E0,1.7719492E0,1.0418298E0,2.5617151E0,2.0470612E1,3.4193134E1,2.619075E0,1.0561757E0,1.1129116E0,1.3669239E0,1.1947913E0],"tree_param":{"num_deleted":"0","num_feature":"30","num_nodes":"21","size_leaf_vector":"0"}},{"base_weights":[2.8130892E-1,9.28225E-1,-1.0512246E0,1.0787778E0,-6.0829175E-1,-1.1248444E0,2.2025123E-1,1.1970441E0,4.6602604E-1,2.3957136E-1,-9.889822E-1,-1.4280109E-1,-1.1705451E0,1.2212521E0,3.478936E-1,-6.350804E-1,7.9904556E-1,-3.607705E-1,-1.1975164E0],"categories":[],"categories_nodes":[],"categories_segments":[],"categories_sizes":[],"default_left":[1,1,1,1,1,1,0,1,1,0,0,0,1,0,0,0,0,0,0],"id":49,"left_children":[1,3,5,7,9,11,-1,13,15,-1,-1,-1,17,-1,-1,-1,-1,-1,-1],"loss_changes":[5.8955894E1,1.1253071E1,2.3492413E0,2.4917145E0,1.762811E0,7.926197E-1,0E0,2.87117E-1,3.6043737E0,0E0,0E0,0E0,1.1238098E-2,0E0,0E0,0E0,0E0,0E0,0E0],"parents":[2147483647,0,0,1,1,2,2,3,3,4,4,5,5,7,7,8,8,12,12],"right_children":[2,4,6,8,10,12,-1,14,16,-1,-1,-1,18,-1,-1,-1,-1,-1,-1],"split_conditions":[1.4234999E-1,9.5745E2,1.08064994E-1,2.1575E1,6.492E-2,1.85E1,4.4050245E-3,2.092E0,1.4765E-2,4.791427E-3,-1.9779643E-2,-2.8560217E-3,2.1065E-2,2.442504E-2,6.957872E-3,-1.2701607E-2,1.598091E-2,-7.2154095E-3,-2.3950329E-2],"split_indices":[27,23,16,1,29,13,0,11,18,0,0,0,16,0,0,0,0,0,0],"split_type":[0,0,0,0,0,0,0,0,0,0,0,0,0,0,0,0,0,0,0],"sum_hessian":[6.6259415E1,4.480902E1,2.1450392E1,4.108162E1,3.7274008E0,2.0385378E1,1.0650125E0,3.363602E1,7.4455976E0,1.2698715E0,2.4575293E0,1.0898895E0,1.9295488E1,3.227763E1,1.3583908E0,1.5183244E0,5.9272733E0,1.085355E0,1.8210135E1],"tree_param":{"num_deleted":"0","num_feature":"30","num_nodes":"19","size_leaf_vector":"0"}},{"base_weights":[2.7887973E-1,1.0115422E0,-8.840753E-1,1.1061133E0,-6.999315E-2,4.1437507E-1,-1.055189E0,1.1426114E0,-4.3113865E-2,4.3826747E-1,-7.9691255E-1,8.7783766E-1,-4.1604406E-1,5.8940813E-2,-1.1922743E0,1.1835634E0,4.3357787E-1,8.560891E-1,-2.0504144E-1,7.870958E-1,-7.522611E-1],"categories":[],"categories_nodes":[],"categories_segments":[],"categories_sizes":[],"default_left":[1,1,1,1,1,1,1,1,0,1,0,0,0,1,0,0,0,0,0,0,0],"id":50,"left_children":[1,3,5,7,9,11,13,15,-1,17,-1,-1,-1,19,-1,-1,-1,-1,-1,-1,-1],"loss_changes":[5.7523952E1,4.2956314E0,6.263237E0,1.6425018E0,1.9219557E0,1.8166468E0,3.6518726E0,5.5685425E-1,0E0,1.0222962E0,0E0,0E0,0E0,2.6725738E0,0E0,0E0,0E0,0E0,0E0,0E0,0E0],"parents":[2147483647,0,0,1,1,2,2,3,3,4,4,5,5,6,6,7,7,9,9,13,13],"right_children":[2,4,6,8,10,12,14,16,-1,18,-1,-1,-1,20,-1,-1,-1,-1,-1,-1,-1],"split_conditions":[5.128E-2,1.683E1,2.0404999E1,4.1184998E0,1.9544998E1,8.1955E-2,7.1865E2,3.335E1,-8.622773E-4,2.2055E-1,-1.593825E-2,1.7556753E-2,-8.320881E-3,2.5925E1,-2.3845486E-2,2.3671266E-2,8.6715575E-3,1.7121783E-2,-4.100829E-3,1.5741915E-2,-1.5045222E-2],"split_indices":[7,20,21,12,1,7,23,21,0,26,0,0,0,21,0,0,0,0,0,0,0],"split_type":[0,0,0,0,0,0,0,0,0,0,0,0,0,0,0,0,0,0,0,0,0],"sum_hessian":[6.5462585E1,4.0240955E1,2.5221632E1,3.698427E1,3.2566864E0,2.7712333E0,2.2450397E1,3.5851425E1,1.1328448E0,2.1502943E0,1.1063921E0,1.7419417E0,1.0292915E0,2.5221608E0,1.9928238E1,3.3261093E1,2.5903335E0,1.1030908E0,1.0472035E0,1.3447745E0,1.1773863E0],"tree_param":{"num_deleted":"0","num_feature":"30","num_nodes":"21","size_leaf_vector":"0"}},{"base_weights":[2.7695113E-1,9.149303E-1,-1.038013E0,1.0648946E0,-5.9706235E-1,-1.1121272E0,2.1815167E-1,1.1846215E0,4.526975E-1,2.3803921E-1,-9.754745E-1,-1.4064747E-1,-1.1581782E0,1.2093061E0,3.358928E-1,1.0208114E0,-2.4675708E-1,-3.510971E-1,-1.1854419E0],"categories":[],"categories_nodes":[],"categories_segments":[],"categories_sizes":[],"default_left":[1,1,1,1,1,1,0,1,1,0,0,0,1,0,0,0,0,0,0],"id":51,"left_children":[1,3,5,7,9,11,-1,13,15,-1,-1,-1,17,-1,-1,-1,-1,-1,-1],"loss_changes":[5.602346E1,1.077906E1,2.282816E0,2.4730492E0,1.7102784E0,7.702141E-1,0E0,3.003044E-1,3.563782E0,0E0,0E0,0E0,1.892662E-2,0E0,0E0,0E0,0E0,0E0,0E0],"parents":[2147483647,0,0,1,1,2,2,3,3,4,4,5,5,7,7,8,8,12,12],"right_children":[2,4,6,8,10,12,-1,14,16,-1,-1,-1,18,-1,-1,-1,-1,-1,-1],"split_conditions":[1.4234999E-1,9.5745E2,1.0797501E-2,2.1575E1,6.492E-2,1.85E1,4.3630335E-3,2.092E0,1.443E1,4.760784E-3,-1.9509489E-2,-2.8129492E-3,9.377E-2,2.4186121E-2,6.7178556E-3,2.0416228E-2,-4.935141E-3,-7.021942E-3,-2.3708837E-2],"split_indices":[27,23,19,1,29,13,0,11,20,0,0,0,6,0,0,0,0,0,0],"split_type":[0,0,0,0,0,0,0,0,0,0,0,0,0,0,0,0,0,0,0],"sum_hessian":[6.464842E1,4.373419E1,2.0914232E1,4.0056915E1,3.6772738E0,1.985731E1,1.056924E0,3.2722393E1,7.334524E0,1.2623657E0,2.4149082E0,1.0821779E0,1.8775131E1,3.1384748E1,1.3376448E0,3.7937274E0,3.5407968E0,1.0669897E0,1.7708141E1],"tree_param":{"num_deleted":"0","num_feature":"30","num_nodes":"19","size_leaf_vector":"0"}},{"base_weights":[2.7476144E-1,9.9787724E-1,-8.731774E-1,1.0926366E0,-6.8528526E-2,4.0868777E-1,-1.0439593E0,1.1299124E0,-5.01857E-2,4.3321717E-1,-7.8558E-1,8.6613667E-1,-4.1051555E-1,5.716247E-2,-1.1808294E0,1.1715012E0,4.231695E-1,-2.0454474E-1,8.4629405E-1,7.7542907E-1,-7.416621E-1],"categories":[],"categories_nodes":[],"categories_segments":[],"categories_sizes":[],"default_left":[1,1,1,1,1,1,1,1,0,1,0,0,0,1,0,0,0,0,0,0,0],"id":52,"left_children":[1,3,5,7,9,11,13,15,-1,17,-1,-1,-1,19,-1,-1,-1,-1,-1,-1,-1],"loss_changes":[5.4717175E1,4.143669E0,6.03162E0,1.634491E0,1.8610498E0,1.7528653E0,3.514885E0,5.597534E-1,0E0,9.980346E-1,0E0,0E0,0E0,2.5734043E0,0E0,0E0,0E0,0E0,0E0,0E0,0E0],"parents":[2147483647,0,0,1,1,2,2,3,3,4,4,5,5,6,6,7,7,9,9,13,13],"right_children":[2,4,6,8,10,12,14,16,-1,18,-1,-1,-1,20,-1,-1,-1,-1,-1,-1,-1],"split_conditions":[5.128E-2,1.683E1,2.0404999E1,4.1184998E0,1.9544998E1,1.7255001E1,7.1865E2,3.335E1,-1.0037139E-3,1.5875E1,-1.57116E-2,1.7322732E-2,-8.210311E-3,2.5925E1,-2.3616588E-2,2.3430023E-2,8.463389E-3,-4.0908945E-3,1.692588E-2,1.5508581E-2,-1.4833242E-2],"split_indices":[7,20,21,12,1,20,23,21,0,0,0,0,0,21,0,0,0,0,0,0,0],"split_type":[0,0,0,0,0,0,0,0,0,0,0,0,0,0,0,0,0,0,0,0,0],"sum_hessian":[6.386727E1,3.926437E1,2.46029E1,3.603753E1,3.226843E0,2.7286892E0,2.187421E1,3.491015E1,1.1273799E0,2.13132E0,1.095523E0,1.7141848E0,1.0145043E0,2.482757E0,1.9391453E1,3.2348946E1,2.5612001E0,1.0362495E0,1.0950706E0,1.3227174E0,1.1600398E0],"tree_param":{"num_deleted":"0","num_feature":"30","num_nodes":"21","size_leaf_vector":"0"}},{"base_weights":[2.7289498E-1,9.9075896E-1,-8.670157E-1,1.0857463E0,-6.801755E-2,4.0473434E-1,-1.0377479E0,1.1233472E0,-5.44826E-2,4.293842E-1,-7.795563E-1,8.59635E-1,-4.06833E-1,5.6504294E-2,-1.1746861E0,1.165306E0,4.1832635E-1,-2.0248306E-1,8.394878E-1,7.698702E-1,-7.3640186E-1],"categories":[],"categories_nodes":[],"categories_segments":[],"categories_sizes":[],"default_left":[1,1,1,1,1,1,1,1,0,1,0,0,0,1,0,0,0,0,0,0,0],"id":53,"left_children":[1,3,5,7,9,11,13,15,-1,17,-1,-1,-1,19,-1,-1,-1,-1,-1,-1,-1],"loss_changes":[5.3283607E1,4.0741806E0,5.9109287E0,1.628685E0,1.826777E0,1.7203541E0,3.4493008E0,5.60894E-1,0E0,9.800455E-1,0E0,0E0,0E0,2.5269194E0,0E0,0E0,0E0,0E0,0E0,0E0,0E0],"parents":[2147483647,0,0,1,1,2,2,3,3,4,4,5,5,6,6,7,7,9,9,13,13],"right_children":[2,4,6,8,10,12,14,16,-1,18,-1,-1,-1,20,-1,-1,-1,-1,-1,-1,-1],"split_conditions":[5.128E-2,1.683E1,2.0404999E1,4.31E1,1.9544998E1,1.7255001E1,7.1865E2,3.3269997E1,-1.089652E-3,1.5875E1,-1.5591125E-2,1.7192699E-2,-8.13666E-3,2.5925E1,-2.349372E-2,2.3306118E-2,8.366527E-3,-4.049661E-3,1.6789755E-2,1.5397404E-2,-1.4728037E-2],"split_indices":[7,20,21,13,1,20,23,21,0,0,0,0,0,21,0,0,0,0,0,0,0],"split_type":[0,0,0,0,0,0,0,0,0,0,0,0,0,0,0,0,0,0,0,0,0],"sum_hessian":[6.3065197E1,3.8776417E1,2.4288778E1,3.5560646E1,3.2157705E0,2.7125974E0,2.1576181E1,3.4439747E1,1.1208997E0,2.1260765E0,1.0896941E0,1.7003096E0,1.0122876E0,2.4651237E0,1.9111057E1,3.1889029E1,2.5507183E0,1.0360483E0,1.090028E0,1.3129419E0,1.1521819E0],"tree_param":{"num_deleted":"0","num_feature":"30","num_nodes":"21","size_leaf_vector":"0"}},{"base_weights":[2.7105746E-1,8.964948E-1,-1.0198641E0,1.0456525E0,-5.814227E-1,-1.0948238E0,2.1892881E-1,1.1673473E0,4.348225E-1,2.3769493E-1,-9.56864E-1,-1.3790846E-1,-1.1412694E0,1.1928571E0,3.1567547E-1,1.0029535E0,-2.552315E-1,-3.3796054E-1,-1.1688318E0],"categories":[],"categories_nodes":[],"categories_segments":[],"categories_sizes":[],"default_left":[1,1,1,1,1,1,0,1,1,0,0,0,1,0,0,0,0,0,0],"id":54,"left_children":[1,3,5,7,9,11,-1,13,15,-1,-1,-1,17,-1,-1,-1,-1,-1,-1],"loss_changes":[5.19975E1,1.012064E1,2.2005959E0,2.4326553E0,1.6416378E0,7.349987E-1,0E0,3.27137E-1,3.4568963E0,0E0,0E0,0E0,2.592659E-2,0E0,0E0,0E0,0E0,0E0,0E0],"parents":[2147483647,0,0,1,1,2,2,3,3,4,4,5,5,7,7,8,8,12,12],"right_children":[2,4,6,8,10,12,-1,14,16,-1,-1,-1,18,-1,-1,-1,-1,-1,-1],"split_conditions":[1.4234999E-1,9.5745E2,1.08064994E-1,2.1575E1,6.492E-2,1.85E1,4.3785763E-3,2.092E0,1.443E1,4.7538984E-3,-1.913728E-2,-2.758169E-3,2.1065E-2,2.3857143E-2,6.3135093E-3,2.005907E-2,-5.10463E-3,-6.7592105E-3,-2.3376636E-2],"split_indices":[27,23,16,1,29,13,0,11,20,0,0,0,16,0,0,0,0,0,0],"split_type":[0,0,0,0,0,0,0,0,0,0,0,0,0,0,0,0,0,0,0],"sum_hessian":[6.2269505E1,4.215258E1,2.0116924E1,3.8554028E1,3.598554E0,1.9078686E1,1.0382385E0,3.1389296E1,7.1647315E0,1.2463113E0,2.3522425E0,1.0668899E0,1.8011795E1,3.0087492E1,1.3018048E0,3.6808197E0,3.483912E0,1.0374314E0,1.6974363E1],"tree_param":{"num_deleted":"0","num_feature":"30","num_nodes":"19","size_leaf_vector":"0"}},{"base_weights":[2.6895574E-1,9.7772425E-1,-8.567024E-1,1.0729411E0,-6.660974E-2,3.993265E-1,-1.0271962E0,1.111421E0,-6.0960546E-2,4.2450333E-1,-7.6864815E-1,8.403132E-1,-3.8288632E-1,5.4778427E-2,-1.1640002E0,1.1540856E0,4.082971E-1,8.300359E-1,-2.0200512E-1,7.586428E-1,-7.262079E-1],"categories":[],"categories_nodes":[],"categories_segments":[],"categories_sizes":[],"default_left":[1,1,1,1,1,1,1,1,0,1,0,0,0,1,0,0,0,0,0,0,0],"id":55,"left_children":[1,3,5,7,9,11,13,15,-1,17,-1,-1,-1,19,-1,-1,-1,-1,-1,-1,-1],"loss_changes":[5.0707554E1,3.9319649E0,5.696102E0,1.6227074E0,1.7693596E0,1.5877652E0,3.3221836E0,5.643387E-1,0E0,9.5704114E-1,0E0,0E0,0E0,2.4342396E0,0E0,0E0,0E0,0E0,0E0,0E0,0E0],"parents":[2147483647,0,0,1,1,2,2,3,3,4,4,5,5,6,6,7,7,9,9,13,13],"right_children":[2,4,6,8,10,12,14,16,-1,18,-1,-1,-1,20,-1,-1,-1,-1,-1,-1,-1],"split_conditions":[5.128E-2,1.683E1,2.0404999E1,4.1184998E0,1.9544998E1,1.5115E-1,7.1865E2,3.335E1,-1.2192109E-3,2.2055E-1,-1.5372963E-2,1.6806263E-2,-7.6577263E-3,2.5925E1,-2.3280002E-2,2.3081712E-2,8.165942E-3,1.6600719E-2,-4.0401025E-3,1.5172856E-2,-1.4524158E-2],"split_indices":[7,20,21,12,1,27,23,21,0,26,0,0,0,21,0,0,0,0,0,0,0],"split_type":[0,0,0,0,0,0,0,0,0,0,0,0,0,0,0,0,0,0,0,0,0],"sum_hessian":[6.150689E1,3.782308E1,2.3683811E1,3.463761E1,3.1854656E0,2.6702056E0,2.1013605E1,3.3519913E1,1.117702E0,2.1069028E0,1.0785626E0,1.660047E0,1.0101585E0,2.4260113E0,1.8587593E1,3.0997644E1,2.5222669E0,1.081803E0,1.0251E0,1.2910559E0,1.1349553E0],"tree_param":{"num_deleted":"0","num_feature":"30","num_nodes":"21","size_leaf_vector":"0"}},{"base_weights":[2.6717588E-1,8.8432145E-1,-1.0074179E0,1.0682013E0,-3.2430086E-1,-1.0833068E0,2.1930279E-1,1.1057738E0,-8.135153E-2,7.857855E-1,-7.8275466E-1,-1.3586824E-1,-1.1301693E0,1.7079759E-1,1.1288061E0,-1.0412996E0,7.591064E-2,-3.2893273E-1,-1.1580638E0],"categories":[],"categories_nodes":[],"categories_segments":[],"categories_sizes":[],"default_left":[1,1,1,1,1,1,0,1,0,0,1,0,1,0,0,0,0,0,0],"id":56,"left_children":[1,3,5,7,9,11,-1,13,-1,-1,15,-1,17,-1,-1,-1,-1,-1,-1],"loss_changes":[4.944404E1,9.707352E0,2.1556892E0,1.6790352E0,3.8361201E0,7.154293E-1,0E0,5.758972E-1,0E0,0E0,1.1846707E0,0E0,3.2836914E-2,0E0,0E0,0E0,0E0,0E0,0E0],"parents":[2147483647,0,0,1,1,2,2,3,3,4,4,5,5,7,7,10,10,12,12],"right_children":[2,4,6,8,10,12,-1,14,-1,-1,16,-1,18,-1,-1,-1,-1,-1,-1],"split_conditions":[1.4234999E-1,1.6805E1,1.08064994E-1,4.6625E1,1.6375E1,1.85E1,4.3860557E-3,3.378E-3,-1.6270307E-3,1.5715709E-2,1.3245001E0,-2.7173646E-3,9.377E-2,3.4159517E-3,2.2576122E-2,-2.0825991E-2,1.5182128E-3,-6.5786545E-3,-2.3161275E-2],"split_indices":[27,20,16,13,1,13,0,14,0,0,11,0,6,0,0,0,0,0,0],"split_type":[0,0,0,0,0,0,0,0,0,0,0,0,0,0,0,0,0,0,0],"sum_hessian":[6.0724567E1,4.1120583E1,1.9603983E1,3.5791454E1,5.329131E0,1.857197E1,1.0320129E0,3.4695534E1,1.0959209E0,1.348916E0,3.9802153E0,1.0590968E0,1.7512873E1,1.036471E0,3.365906E1,2.8956401E0,1.0845752E0,1.0195476E0,1.6493326E1],"tree_param":{"num_deleted":"0","num_feature":"30","num_nodes":"19","size_leaf_vector":"0"}},{"base_weights":[2.6500168E-1,9.6512324E-1,-8.462796E-1,1.0601962E0,-6.1780814E-2,3.960452E-1,-1.0170796E0,1.099368E0,-6.617851E-2,4.2160884E-1,-7.5517386E-1,8.102246E-1,-2.6681995E-1,5.3342253E-2,-1.1538482E0,1.1430217E0,3.939358E-1,8.2033765E-1,-1.9711924E-1,7.479263E-1,-7.162797E-1],"categories":[],"categories_nodes":[],"categories_segments":[],"categories_sizes":[],"default_left":[1,1,1,1,1,1,1,1,0,1,0,0,0,1,0,0,0,0,0,0,0],"id":57,"left_children":[1,3,5,7,9,11,13,15,-1,17,-1,-1,-1,19,-1,-1,-1,-1,-1,-1,-1],"loss_changes":[4.825155E1,3.762806E0,5.5159893E0,1.6045151E0,1.710706E0,1.2134147E0,3.2040215E0,5.8462524E-1,0E0,9.238623E-1,0E0,0E0,0E0,2.3466697E0,0E0,0E0,0E0,0E0,0E0,0E0,0E0],"parents":[2147483647,0,0,1,1,2,2,3,3,4,4,5,5,6,6,7,7,9,9,13,13],"right_children":[2,4,6,8,10,12,14,16,-1,18,-1,-1,-1,20,-1,-1,-1,-1,-1,-1,-1],"split_conditions":[5.128E-2,1.683E1,2.0404999E1,4.31E1,2.8970001E1,8.579E2,7.1865E2,3.3269997E1,-1.3235701E-3,2.2305E-1,-1.5103477E-2,1.6204491E-2,-5.336399E-3,2.5925E1,-2.3076963E-2,2.2860434E-2,7.878716E-3,1.6406752E-2,-3.942385E-3,1.4958526E-2,-1.4325594E-2],"split_indices":[7,20,21,13,21,23,23,21,0,26,0,0,0,21,0,0,0,0,0,0,0],"split_type":[0,0,0,0,0,0,0,0,0,0,0,0,0,0,0,0,0,0,0,0,0],"sum_hessian":[5.9967648E1,3.6870365E1,2.3097284E1,3.371641E1,3.153953E0,2.6323016E0,2.0464983E1,3.2606438E1,1.1099751E0,2.0893521E0,1.064601E0,1.483227E0,1.1490746E0,2.3876855E0,1.8077297E1,3.0122099E1,2.4843373E0,1.0724102E0,1.0169418E0,1.2698424E0,1.1178432E0],"tree_param":{"num_deleted":"0","num_feature":"30","num_nodes":"21","size_leaf_vector":"0"}},{"base_weights":[2.6329052E-1,8.725423E-1,-9.9573153E-1,1.0207192E0,-5.6023717E-1,-1.0723339E0,2.1991487E-1,1.1461637E0,4.0639034E-1,2.4101192E-1,-9.330141E-1,-1.3383374E-1,-1.1196436E0,1.172889E0,2.8809652E-1,9.785752E-1,-2.737328E-1,-3.2109177E-1,-1.1478503E0],"categories":[],"categories_nodes":[],"categories_segments":[],"categories_sizes":[],"default_left":[1,1,1,1,1,1,0,1,1,0,0,0,1,0,0,0,0,0,0],"id":58,"left_children":[1,3,5,7,9,11,-1,13,15,-1,-1,-1,17,-1,-1,-1,-1,-1,-1],"loss_changes":[4.7047813E1,9.298246E0,2.1074982E0,2.4322166E0,1.5683843E0,6.9721985E-1,0E0,3.656311E-1,3.3523593E0,0E0,0E0,0E0,3.7477493E-2,0E0,0E0,0E0,0E0,0E0,0E0],"parents":[2147483647,0,0,1,1,2,2,3,3,4,4,5,5,7,7,8,8,12,12],"right_children":[2,4,6,8,10,12,-1,14,16,-1,-1,-1,18,-1,-1,-1,-1,-1,-1],"split_conditions":[1.4234999E-1,9.5745E2,1.0797501E-2,2.1575E1,6.492E-2,1.85E1,4.398297E-3,2.092E0,1.443E1,4.8202383E-3,-1.866028E-2,-2.6766746E-3,2.1065E-2,2.3457779E-2,5.7619303E-3,1.9571504E-2,-5.474656E-3,-6.421835E-3,-2.2957005E-2],"split_indices":[27,23,19,1,29,13,0,11,20,0,0,0,16,0,0,0,0,0,0],"split_type":[0,0,0,0,0,0,0,0,0,0,0,0,0,0,0,0,0,0,0],"sum_hessian":[5.9202477E1,4.010317E1,1.9099306E1,3.6605095E1,3.498074E0,1.8078032E1,1.0212744E0,2.9678997E1,6.926099E0,1.2229425E0,2.2751317E0,1.0513252E0,1.7026707E1,2.8426723E1,1.2522736E0,3.5232131E0,3.4028854E0,1.0033969E0,1.602331E1],"tree_param":{"num_deleted":"0","num_feature":"30","num_nodes":"19","size_leaf_vector":"0"}},{"base_weights":[2.6128978E-1,9.528195E-1,-8.364464E-1,1.0481573E0,-6.0475048E-2,3.911448E-1,-1.0073103E0,1.0883203E0,-7.469443E-2,4.1763985E-1,-7.453965E-1,7.988432E-1,-2.6135403E-1,5.167437E-2,-1.1440338E0,1.5064019E-1,1.1134623E0,-1.9583824E-1,8.11254E-1,7.372476E-1,-7.0660377E-1],"categories":[],"categories_nodes":[],"categories_segments":[],"categories_sizes":[],"default_left":[1,1,1,1,1,1,1,1,0,1,0,0,0,1,0,0,0,0,0,0,0],"id":59,"left_children":[1,3,5,7,9,11,13,15,-1,17,-1,-1,-1,19,-1,-1,-1,-1,-1,-1,-1],"loss_changes":[4.593938E1,3.6330643E0,5.326462E0,1.6068344E0,1.6615037E0,1.164726E0,3.0884209E0,6.037483E-1,0E0,8.9996517E-1,0E0,0E0,0E0,2.2620149E0,0E0,0E0,0E0,0E0,0E0,0E0,0E0],"parents":[2147483647,0,0,1,1,2,2,3,3,4,4,5,5,6,6,7,7,9,9,13,13],"right_children":[2,4,6,8,10,12,14,16,-1,18,-1,-1,-1,20,-1,-1,-1,-1,-1,-1,-1],"split_conditions":[5.128E-2,1.683E1,2.0404999E1,4.1184998E0,1.9544998E1,8.579E2,7.1865E2,3.378E-3,-1.4938886E-3,1.5875E1,-1.4907929E-2,1.5976863E-2,-5.2270805E-3,2.5925E1,-2.2880675E-2,3.0128036E-3,2.2269245E-2,-3.9167646E-3,1.6225081E-2,1.4744951E-2,-1.4132075E-2],"split_indices":[7,20,21,12,1,23,23,14,0,0,0,0,0,21,0,0,0,0,0,0,0],"split_type":[0,0,0,0,0,0,0,0,0,0,0,0,0,0,0,0,0,0,0,0,0],"sum_hessian":[5.846696E1,3.5951176E1,2.2515783E1,3.2828075E1,3.1231008E0,2.5934713E0,1.9922314E1,3.1724102E1,1.1039747E0,2.0690327E0,1.054068E0,1.458118E0,1.1353533E0,2.34915E0,1.7573162E1,1.010978E0,3.0713123E1,1.0050485E0,1.0639842E0,1.2482861E0,1.1008638E0],"tree_param":{"num_deleted":"0","num_feature":"30","num_nodes":"21","size_leaf_vector":"0"}},{"base_weights":[2.595366E-1,8.6110854E-1,-9.845709E-1,1.0089052E0,-5.5037665E-1,-1.0618279E0,2.1794331E-1,1.1361827E0,3.9328057E-1,2.611181E-1,-9.067756E-1,-1.3180709E-1,-1.1096267E0,1.163506E0,2.7748767E-1,9.6503216E-1,-2.7633762E-1],"categories":[],"categories_nodes":[],"categories_segments":[],"categories_sizes":[],"default_left":[1,1,1,1,1,1,0,1,1,0,0,0,0,0,0,0,0],"id":60,"left_children":[1,3,5,7,9,11,-1,13,15,-1,-1,-1,-1,-1,-1,-1,-1],"loss_changes":[4.4792393E1,8.92318E0,2.0527096E0,2.4258995E0,1.5235149E0,6.8019104E-1,0E0,3.7755585E-1,3.2570326E0,0E0,0E0,0E0,0E0,0E0,0E0,0E0,0E0],"parents":[2147483647,0,0,1,1,2,2,3,3,4,4,5,5,7,7,8,8],"right_children":[2,4,6,8,10,12,-1,14,16,-1,-1,-1,-1,-1,-1,-1,-1],"split_conditions":[1.4234999E-1,9.5745E2,1.0797501E-2,2.1575E1,2.071E-1,1.85E1,4.3588663E-3,2.092E0,1.443E1,5.222362E-3,-1.8135512E-2,-2.6361416E-3,-2.2192532E-2,2.327012E-2,5.549753E-3,1.9300643E-2,-5.526752E-3],"split_indices":[27,23,19,1,26,13,0,11,20,0,0,0,0,0,0,0,0],"split_type":[0,0,0,0,0,0,0,0,0,0,0,0,0,0,0,0,0],"sum_hessian":[5.771644E1,3.911213E1,1.860431E1,3.5663067E1,3.449062E0,1.7591139E1,1.01317E0,2.8852392E1,6.8106737E0,1.1341126E0,2.3149495E0,1.0435884E0,1.654755E1,2.7618608E1,1.233785E0,3.435831E0,3.3748424E0],"tree_param":{"num_deleted":"0","num_feature":"30","num_nodes":"17","size_leaf_vector":"0"}},{"base_weights":[2.577248E-1,9.405443E-1,-8.266833E-1,1.0363611E0,-6.065018E-2,3.8625574E-1,-9.976688E-1,1.0773975E0,-8.216415E-2,4.1293862E-1,-7.3744875E-1,7.8776354E-1,-2.562003E-1,4.9926758E-2,-1.1343994E0,1.1231298E0,3.668921E-1,5.2458143E-1,9.54114E-2,7.2683203E-1,-6.972729E-1],"categories":[],"categories_nodes":[],"categories_segments":[],"categories_sizes":[],"default_left":[1,1,1,1,1,1,1,1,0,1,0,0,0,1,0,0,0,0,0,0,0],"id":61,"left_children":[1,3,5,7,9,11,13,15,-1,17,-1,-1,-1,19,-1,-1,-1,-1,-1,-1,-1],"loss_changes":[4.3718113E1,3.5214634E0,5.1428213E0,1.601368E0,1.6166534E0,1.1188567E0,2.9764252E0,6.232834E-1,0E0,5.8051348E-2,0E0,0E0,0E0,2.1815464E0,0E0,0E0,0E0,0E0,0E0,0E0,0E0],"parents":[2147483647,0,0,1,1,2,2,3,3,4,4,5,5,6,6,7,7,9,9,13,13],"right_children":[2,4,6,8,10,12,14,16,-1,18,-1,-1,-1,20,-1,-1,-1,-1,-1,-1,-1],"split_conditions":[5.128E-2,1.683E1,2.0404999E1,4.31E1,2.8970001E1,8.579E2,7.1865E2,3.3269997E1,-1.6432831E-3,4.5505E-3,-1.4748975E-2,1.575527E-2,-5.124006E-3,2.5925E1,-2.2687988E-2,2.2462597E-2,7.3378417E-3,1.0491628E-2,1.9082279E-3,1.4536641E-2,-1.39454575E-2],"split_indices":[7,20,21,13,21,23,23,21,0,14,0,0,0,21,0,0,0,0,0,0,0],"split_type":[0,0,0,0,0,0,0,0,0,0,0,0,0,0,0,0,0,0,0,0,0],"sum_hessian":[5.699216E1,3.5052998E1,2.1939163E1,3.195929E1,3.0937076E0,2.5550587E0,1.9384106E1,3.0863731E1,1.0955567E0,2.0494635E0,1.0442442E0,1.4331965E0,1.1218622E0,2.3111928E0,1.7072912E1,2.8451664E1,2.4120677E0,1.0338705E0,1.015593E0,1.2269391E0,1.0842537E0],"tree_param":{"num_deleted":"0","num_feature":"30","num_nodes":"21","size_leaf_vector":"0"}},{"base_weights":[2.5608504E-1,8.5000956E-1,-9.732269E-1,9.974547E-1,-5.403471E-1,-1.051232E0,2.1846288E-1,1.1262742E0,3.833695E-1,2.4374709E-1,-9.1183066E-1,-1.2986803E-1,-1.0995036E0,1.15423E0,2.669645E-1,9.54473E-1,-2.778709E-1],"categories":[],"categories_nodes":[],"categories_segments":[],"categories_sizes":[],"default_left":[1,1,1,1,1,1,0,1,1,0,0,0,0,0,0,0,0],"id":62,"left_children":[1,3,5,7,9,11,-1,13,15,-1,-1,-1,-1,-1,-1,-1,-1],"loss_changes":[4.2633804E1,8.562954E0,2.0069008E0,2.3954506E0,1.504315E0,6.629448E-1,0E0,3.8915253E-1,3.1780431E0,0E0,0E0,0E0,0E0,0E0,0E0,0E0,0E0],"parents":[2147483647,0,0,1,1,2,2,3,3,4,4,5,5,7,7,8,8],"right_children":[2,4,6,8,10,12,-1,14,16,-1,-1,-1,-1,-1,-1,-1,-1],"split_conditions":[1.4234999E-1,9.5745E2,1.08064994E-1,2.1575E1,6.492E-2,1.85E1,4.3692575E-3,2.092E0,1.443E1,4.8749414E-3,-1.8236613E-2,-2.5973606E-3,-2.1990072E-2,2.30846E-2,5.33929E-3,1.908946E-2,-5.557418E-3],"split_indices":[27,23,16,1,29,13,0,11,20,0,0,0,0,0,0,0,0],"split_type":[0,0,0,0,0,0,0,0,0,0,0,0,0,0,0,0,0],"sum_hessian":[5.6259953E1,3.8141148E1,1.8118803E1,3.4739655E1,3.4014947E0,1.7116278E1,1.0025254E0,2.8026361E1,6.713293E0,1.2040176E0,2.197477E0,1.0358224E0,1.6080456E1,2.6810923E1,1.2154379E0,3.3642135E0,3.3490796E0],"tree_param":{"num_deleted":"0","num_feature":"30","num_nodes":"17","size_leaf_vector":"0"}},{"base_weights":[2.5429213E-1,9.2882884E-1,-8.173489E-1,1.0250335E0,-5.9291665E-2,3.815124E-1,-9.88484E-1,1.0671393E0,-9.110938E-2,4.0980887E-1,-7.289176E-1,7.769679E-1,-2.51175E-1,4.8208535E-2,-1.1252443E0,1.1137258E0,3.5798922E-1,5.2106494E-1,9.3422554E-2,7.166611E-1,-6.881694E-1],"categories":[],"categories_nodes":[],"categories_segments":[],"categories_sizes":[],"default_left":[1,1,1,1,1,1,1,1,0,1,0,0,0,1,0,0,0,0,0,0,0],"id":63,"left_children":[1,3,5,7,9,11,13,15,-1,17,-1,-1,-1,19,-1,-1,-1,-1,-1,-1,-1],"loss_changes":[4.1639153E1,3.4045792E0,4.9683466E0,1.6062164E0,1.5759861E0,1.0750823E0,2.8701134E0,6.261101E-1,0E0,5.801922E-2,0E0,0E0,0E0,2.1045744E0,0E0,0E0,0E0,0E0,0E0,0E0,0E0],"parents":[2147483647,0,0,1,1,2,2,3,3,4,4,5,5,6,6,7,7,9,9,13,13],"right_children":[2,4,6,8,10,12,14,16,-1,18,-1,-1,-1,20,-1,-1,-1,-1,-1,-1,-1],"split_conditions":[5.128E-2,1.683E1,2.0404999E1,4.1184998E0,1.9544998E1,8.579E2,7.1865E2,3.335E1,-1.8221876E-3,8.8755E-2,-1.4578352E-2,1.5539357E-2,-5.0234995E-3,2.5925E1,-2.2504885E-2,2.2274515E-2,7.1597844E-3,1.0421298E-2,1.868451E-3,1.4333221E-2,-1.3763388E-2],"split_indices":[7,20,21,12,1,23,23,21,0,4,0,0,0,21,0,0,0,0,0,0,0],"split_type":[0,0,0,0,0,0,0,0,0,0,0,0,0,0,0,0,0,0,0,0,0],"sum_hessian":[5.555301E1,3.417504E1,2.1377968E1,3.1108883E1,3.0661583E0,2.5169003E0,1.8861067E1,3.0020292E1,1.0885905E0,2.031213E0,1.0349451E0,1.4084916E0,1.1084087E0,2.2736282E0,1.6587439E1,2.7634384E1,2.385908E0,1.0241487E0,1.0070645E0,1.2058157E0,1.0678127E0],"tree_param":{"num_deleted":"0","num_feature":"30","num_nodes":"21","size_leaf_vector":"0"}},{"base_weights":[2.5268954E-1,8.391085E-1,-9.621751E-1,1.0215662E0,-2.974757E-1,-1.0399592E0,1.3579115E-1,1.0626062E0,-1.08080424E-1,7.526777E-1,-7.391839E-1,-1.2797408E-1,-1.0890332E0,1.137901E0,5.385572E-1,-9.985502E-1,1.0402576E-1],"categories":[],"categories_nodes":[],"categories_segments":[],"categories_sizes":[],"default_left":[1,1,1,1,1,1,0,1,0,0,1,0,0,0,0,0,0],"id":64,"left_children":[1,3,5,7,9,11,-1,13,-1,-1,15,-1,-1,-1,-1,-1,-1],"loss_changes":[4.05861E1,8.224186E0,1.7334633E0,1.6510086E0,3.3662002E0,6.4499474E-1,0E0,6.524353E-1,0E0,0E0,1.1467502E0,0E0,0E0,0E0,0E0,0E0,0E0],"parents":[2147483647,0,0,1,1,2,2,3,3,4,4,5,5,7,7,10,10],"right_children":[2,4,6,8,10,12,-1,14,-1,-1,16,-1,-1,-1,-1,-1,-1],"split_conditions":[1.4234999E-1,1.6805E1,9.838E-2,4.6625E1,1.6375E1,1.85E1,2.715823E-3,3.0145E1,-2.1616085E-3,1.50535535E-2,1.3245001E0,-2.5594814E-3,-2.1780664E-2,2.2758018E-2,1.0771143E-2,-1.9971004E-2,2.080515E-3],"split_indices":[27,20,16,13,1,13,0,21,0,0,11,0,0,0,0,0,0],"split_type":[0,0,0,0,0,0,0,0,0,0,0,0,0,0,0,0,0],"sum_hessian":[5.4836094E1,3.719247E1,1.7643625E1,3.2134987E1,5.057484E0,1.6525711E1,1.1179137E0,3.1065718E1,1.069269E0,1.2889686E0,3.7685156E0,1.0280654E0,1.5497645E1,2.6138765E1,4.9269533E0,2.7411337E0,1.0273819E0],"tree_param":{"num_deleted":"0","num_feature":"30","num_nodes":"17","size_leaf_vector":"0"}},{"base_weights":[2.5093216E-1,9.175657E-1,-8.0777687E-1,1.0137764E0,-5.469808E-2,3.786535E-1,-9.7956765E-1,1.0566728E0,-9.343353E-2,4.0672684E-1,-7.166065E-1,7.676303E-1,-2.4477708E-1,4.676227E-2,-1.1164255E0,1.1041285E0,3.5010618E-1,5.1512223E-1,9.419931E-2,7.06983E-1,-6.792858E-1],"categories":[],"categories_nodes":[],"categories_segments":[],"categories_sizes":[],"default_left":[1,1,1,1,1,1,1,1,0,1,0,0,0,1,0,0,0,0,0,0,0],"id":65,"left_children":[1,3,5,7,9,11,13,15,-1,17,-1,-1,-1,19,-1,-1,-1,-1,-1,-1,-1],"loss_changes":[3.9656624E1,3.2641964E0,4.8215322E0,1.5836754E0,1.5246266E0,1.0325525E0,2.7705727E0,6.253967E-1,0E0,5.3682E-2,0E0,0E0,0E0,2.0318298E0,0E0,0E0,0E0,0E0,0E0,0E0,0E0],"parents":[2147483647,0,0,1,1,2,2,3,3,4,4,5,5,6,6,7,7,9,9,13,13],"right_children":[2,4,6,8,10,12,14,16,-1,18,-1,-1,-1,20,-1,-1,-1,-1,-1,-1,-1],"split_conditions":[5.128E-2,1.683E1,2.0404999E1,4.1184998E0,2.8970001E1,8.579E2,7.1865E2,3.335E1,-1.8686706E-3,4.5505E-3,-1.433213E-2,1.5352605E-2,-4.8955414E-3,2.5925E1,-2.2328509E-2,2.208257E-2,7.0021236E-3,1.0302445E-2,1.883986E-3,1.4139659E-2,-1.35857165E-2],"split_indices":[7,20,21,12,21,23,23,21,0,14,0,0,0,21,0,0,0,0,0,0,0],"split_type":[0,0,0,0,0,0,0,0,0,0,0,0,0,0,0,0,0,0,0,0,0],"sum_hessian":[5.41389E1,3.3302654E1,2.0836246E1,3.0265068E1,3.0375857E0,2.4831097E0,1.8353138E1,2.9180187E1,1.08488E0,2.0170193E0,1.0205662E0,1.3866422E0,1.0964675E0,2.236841E0,1.6116297E1,2.681643E1,2.3637583E0,1.016289E0,1.0007303E0,1.1852819E0,1.0515592E0],"tree_param":{"num_deleted":"0","num_feature":"30","num_nodes":"21","size_leaf_vector":"0"}},{"base_weights":[2.493686E-1,8.286394E-1,-9.513564E-1,9.755176E-1,-5.2003306E-1,-1.0298688E0,1.357251E-1,1.1080583E0,3.610263E-1,2.5130543E-1,-8.921404E-1,-1.2612562E-1,-1.0794542E0,1.1374463E0,2.4170272E-1,9.3482816E-1,-2.9148182E-1,-3.242193E-1,-1.1103673E0],"categories":[],"categories_nodes":[],"categories_segments":[],"categories_sizes":[],"default_left":[1,1,1,1,1,1,0,1,1,0,0,0,1,0,0,0,0,0,0],"id":66,"left_children":[1,3,5,7,9,11,-1,13,15,-1,-1,-1,17,-1,-1,-1,-1,-1,-1],"loss_changes":[3.865208E1,7.8873997E0,1.6915455E0,2.3646164E0,1.4616073E0,6.289406E-1,0E0,4.2368317E-1,3.082775E0,0E0,0E0,0E0,1.477623E-2,0E0,0E0,0E0,0E0,0E0,0E0],"parents":[2147483647,0,0,1,1,2,2,3,3,4,